2504 64
1 -0.36131382 -0.6241621 -0.52455705 -0.42756426 -0.34649193 0.61304116 0.5618642 0.39743903 -0.5006492 1.0812806 0.672327 -0.5495824 -0.52928287 -0.5045655 0.42934406 0.9028228 -0.48329383 0.7792246 0.3391936 0.5739751 0.8611059 0.14104426 -0.3909086 -1.1777724 0.5296523 0.31705004 -0.38769424 -0.11439908 0.58981013 0.32285103 0.6050196 0.4010907 -0.057429384 0.90116686 -0.24742696 0.07516523 -0.1359056 -0.2868032 -0.35976434 -0.41106796 0.6007253 0.050574288 -0.2633516 -0.34569216 1.438801 0.40311962 0.25988334 -0.49093083 0.2572158 0.5174174 1.1112378 0.037277 0.62789315 -0.4656535 -0.30676043 0.11239333 0.1351444 -1.1236992 0.16581358 0.06315563 -0.48826653 0.2864721 -0.7530344 0.18663694
2 -0.5210785 -0.44519505 -0.7077937 -0.41656154 0.101106904 0.42126825 1.079649 0.21755515 -0.3436922 0.98285306 0.7274407 -0.49611 -0.1039936 -0.82543117 0.52642703 1.1175845 -0.07123244 0.55485964 0.4020868 0.7916237 0.40005103 0.107727244 -0.4602367 -1.4344312 0.41551468 0.16166084 -0.18092029 -0.058329225 0.5965562 0.6136825 0.62521976 0.023456048 0.35402647 0.667247 -0.37850386 -0.04930734 -0.024016304 -0.27697977 0.040465392 -0.0051499614 0.31097597 -0.06831098 -0.006551641 -0.6417187 0.9358324 0.26615384 0.30705717 -0.41868782 0.33030793 0.6438638 1.1422728 0.26080066 0.57218295 -0.58490336 -0.18834397 0.50483406 0.39775914 -1.3361616 0.2127193 0.063390635 -0.15127905 0.2555882 -0.81885546 0.032325346
3 -0.4109863 0.34540135 -0.32897294 -0.14268537 0.13969818 0.1290302 0.6663402 0.6267871 -0.5791984 0.872756 1.827943 0.33607993 0.75271416 -1.1020467 -0.8102911 1.0884825 -0.45605144 0.77454096 0.6855455 0.44423482 0.34228694 0.92800653 0.5278621 -1.9689761 -0.12693611 -0.04141654 -0.2535763 -0.55224687 1.2493507 0.38662905 0.69922864 0.6503811 -0.2884802 0.16896795 -0.8357161 -0.4144277 0.47608414 0.46274558 0.68910325 -0.25631618 0.510461 1.041445 -0.59102464 -0.9400845 0.7336379 0.6306919 -0.088777915 -0.96520543 -0.30862093 0.5888912 0.183736 0.09959826 0.23128687 -0.0586717 0.4895632 0.33365902 0.28260246 -0.81241024 -0.3378132 -0.5795843 -0.32080835 -0.28189462 -0.9451984 0.2462681
4 0.07172217 0.37861738 -0.33894542 0.117874384 -0.30443242 0.06216717 0.6769747 0.48244977 -0.25273025 -0.3249455 0.52326053 -0.42261475 -0.11839888 -0.5300201 -0.86078894 0.4698155 -0.4695555 0.69644904 0.1404233 1.5727834 -0.07081273 1.066136 0.9274317 -1.141965 -0.60490644 0.67256784 -0.41924655 0.61753124 0.9136749 -0.32227406 1.2335689 1.13168 -0.51678735 -0.111320294 -0.468679 -0.1479697 -0.19830637 0.121413566 0.5270541 0.4048302 0.56015074 -0.021878831 0.02581574 0.09809366 0.7798095 -0.2381161 0.29176444 -1.1787783 -0.0944028 1.0149866 0.9092387 0.7806403 0.83948505 0.51590705 0.038528744 0.47216865 0.36703843 -1.1163309 0.71559 -0.65371966 0.73241466 -0.2757998 -1.052587 0.24826674
5 -0.4582891 -0.80948263 -0.869952 0.3621084 -0.072419636 0.27502233 0.12588173 0.15918387 -0.601746 -0.502442 0.32491463 -0.57803774 0.11309191 0.23410527 0.37210375 0.93834835 -0.6638605 0.87557083 -0.052813653 1.6479349 -0.2733964 1.3344548 1.0784193 -0.5306829 -0.08546824 -0.23189849 -0.042560562 0.88927543 0.59089005 0.36865106 0.7395657 0.3719259 0.3783154 -0.5007397 -0.16064633 -0.53562313 -0.54233027 0.5284406 0.16928878 -0.6663233 0.0548894 0.74096286 -0.6850149 0.4532701 0.85315317 1.0029525 0.24141037 -1.3239802 -0.50066304 0.46692017 0.067393444 -0.1024892 0.42159352 -0.008763786 -0.49050328 -0.22470859 0.76984185 -1.0574591 0.2624112 -0.8192527 -0.42309982 -0.14441055 -0.44314736 -0.7614138
6 -0.32247844 -0.8305294 -0.7171037 0.33930016 0.12420626 0.57286465 0.3705714 -0.43671036 -0.6847231 -0.49044147 -0.011067146 -0.40307125 0.030130362 0.31456253 0.38556454 0.7875516 -0.6411251 0.45711464 -0.18710983 1.533348 -0.09268076 1.1844457 0.8923268 -0.21526967 -0.45000696 -0.082828216 -0.07856294 0.6566405 0.28880906 0.6213538 0.5374687 0.28282055 0.4155644 -0.39858472 -0.025098246 -0.6127221 -0.3642048 0.59724826 -0.0076933205 -0.29227343 -0.15086092 0.5044726 -0.68464535 0.3425302 0.9115375 0.7978134 0.29248345 -1.1276857 -0.5158588 0.6824405 0.07073157 -0.14956528 0.4239124 -0.22640522 -0.5565233 -0.1491201 0.7824179 -1.0229598 0.13389276 -0.81095624 -0.6040383 -0.13064073 -0.35441816 -0.74365556
7 -0.1351743 0.34311762 -0.6374462 0.41988474 0.0005029481 1.0004481 0.70096964 -0.72263396 -0.918195 0.2607694 0.5313992 -1.204758 -0.03670741 -0.5885385 0.95187026 0.5868505 -1.071722 0.09388809 -0.39032125 0.108322196 -0.033291873 0.28718576 -0.006841007 -1.0474937 0.23029834 -0.28817558 -0.41020137 0.10713935 -0.19917709 -0.91636837 1.5459888 0.42127421 0.043143075 -0.8123438 -0.8883876 0.2083621 -0.60961974 0.35794783 -0.5601848 -0.27402985 1.0454189 0.27860466 0.14477636 -0.70218647 0.43278116 -0.4643765 -0.41216472 -0.50601894 0.26037097 -0.7219268 0.22809026 0.31262425 0.35978785 0.3338947 -0.68644613 -0.511458 0.16438416 -0.39044926 -0.39427483 0.6005136 -0.73393464 0.34204808 0.05693307 0.19475849
8 -0.007878006 0.118622914 -0.557322 0.09739857 -0.4167949 0.44668448 0.517525 -0.90658045 -0.96856517 -0.040745582 0.1383915 -0.79558766 0.16591632 -0.15766886 0.89622045 0.66186166 -0.9008313 0.046886437 -0.28255066 -0.16958162 0.1474272 0.23407267 0.15717544 -0.779349 -0.07389183 0.022865819 -0.14301091 -0.15552005 -0.14250967 -0.46055034 1.3968518 0.23017992 0.15584286 -0.4172872 -0.8315743 0.64238197 -0.4219791 0.44056025 -0.38172045 -0.34500012 0.30642265 0.3017604 -0.19581783 -0.36958992 0.04130594 -0.2904617 -0.79743165 -0.6598679 -0.08769308 -0.48541138 0.23487544 0.34243765 0.64214534 0.48769924 -0.5073918 -0.5871511 0.34797987 -0.29050222 -0.33559638 0.19786812 -0.4671901 0.034237042 -0.09128247 0.10769731
9 -0.08715649 0.44852826 -0.40960744 0.31343603 -0.59201175 0.7466292 0.9919095 -0.6481833 -1.2936717 -0.08843478 0.060629144 -0.41135255 0.35116467 -0.36655945 1.124873 0.8883943 -1.1174366 0.14742239 0.04855068 0.12122894 0.25585923 0.13220319 0.39433065 -1.2552285 0.012818453 -0.4587708 -0.14647311 -0.15734245 -0.36697283 -0.5289375 1.510891 0.38080043 -0.121076666 -0.33159736 -1.3750417 0.6832676 -0.38587907 0.46299636 -0.8709469 -0.08219474 0.6423675 0.27148613 -0.76271605 -0.6425616 -0.34621942 0.1643171 -0.89563036 -1.0829711 -0.10410388 -0.35204694 0.23444797 0.15144137 1.345822 0.2492172 -0.22004117 -0.9400412 0.5628081 -0.40071452 -0.37434635 0.22782728 -0.8293234 -0.22777013 -0.12762016 0.31911176
10 -0.4000581 0.39033583 -0.3338159 -0.26808012 -0.29615468 0.4888132 0.5702261 -0.9133955 -1.6616397 0.028607568 0.33413154 -0.65056044 0.14373945 -0.6002925 0.9648371 1.0168085 -0.62370646 -0.25854197 -0.09292748 -0.32367432 0.7448136 0.13326198 -0.34534526 -0.63733137 0.007154763 0.22677067 -0.09564029 -0.15771587 -0.59933144 -0.7366632 1.563474 0.63888294 -0.6558259 -0.25315377 -1.4491055 0.97565895 -0.57993937 0.9076229 -0.13334861 -0.25574806 0.48113006 0.13147867 -0.31281406 -0.24250762 0.089764096 -0.30984443 -0.80746216 -1.1062257 -0.056120805 -0.15684693 0.3885367 0.19789363 0.8380723 0.32821336 -0.03610849 -0.31222948 0.5421742 -0.615778 -0.337952 0.28560072 -0.4825589 -0.35925084 -0.24794719 -0.011258197
11 -0.5341322 0.11921427 -0.2016084 -0.27924308 -0.35619423 0.3165186 0.80781484 -0.6482293 -2.0168366 0.082578525 0.24734731 -0.5036045 0.05656998 -1.2185793 0.9504252 0.8412969 -0.50847274 0.029878628 -0.07396544 -0.19952355 0.50294113 0.45765 -0.24171792 -0.58709747 0.14759223 -0.09636839 -0.014746247 -0.0468179 -0.83853215 -0.4210346 1.428346 0.60604525 -0.747578 -0.3177253 -1.3574357 0.91446507 -0.30151004 0.9514818 0.0851206 -0.40435988 -0.10145703 -0.014786069 -0.3973837 0.012691165 0.06556761 -0.3203353 -0.94654065 -1.0258383 -0.11023787 -0.026076086 0.5084808 -0.046695303 0.8880641 0.37818417 -0.62485856 -0.18073015 0.4773117 -0.85845655 -0.39858255 0.5200491 -0.49291173 -0.026109388 -0.19589981 -0.13788714
12 -0.24239734 0.12120718 -0.9558259 -0.49108237 -0.023159092 0.20980512 0.7207488 -0.29214874 -2.092525 -0.031012148 -0.319134 -0.30124754 -0.0042176633 -1.5787581 0.81666034 0.775287 -0.24935317 0.53840154 0.52828985 0.7214346 0.18658192 0.090075865 0.5659162 -0.9169394 0.39945015 -0.1226677 -0.6793191 0.041342102 -0.64625335 -0.47805274 0.75564283 0.6956642 -0.87662166 -0.39561817 -1.0950918 0.65361637 -0.22426595 1.0520662 0.41942704 -0.30165705 -0.5090647 0.098587885 -0.042397503 -0.97427386 1.2753723 0.07895388 -1.703621 -0.83819675 0.2391544 0.092441306 0.28196105 0.4570629 0.53556126 0.22466111 -0.9616277 0.08865754 0.87364006 -0.82649946 1.0206392 0.42042887 -0.295834 0.48533264 -0.40812573 0.59395176
13 0.038052335 -0.5341667 -0.73748255 -0.9934515 0.24173927 0.05786277 0.55035037 -0.2982847 -1.9762635 -0.17059816 -0.0075804805 -0.2650943 -0.21024224 -1.1371398 0.3914607 0.42677495 -0.07019193 0.30067492 0.14615959 0.5958102 0.07505842 0.3418968 0.31192496 -0.4396693 -0.22573847 -0.40810743 -0.15717053 0.33143887 -0.72074777 -0.36328664 0.8262852 0.44565186 -0.8377723 -0.66238844 -1.1666659 0.83691555 -0.3302538 0.7315673 0.36292225 -0.70930976 -0.56863546 0.19364335 -0.40609923 -0.40285933 1.5481982 -0.11174305 -1.2430053 -0.8756547 0.23914054 0.25747016 0.14002068 0.050239228 0.2914985 0.30275288 -0.41368783 0.068967246 0.68223304 -1.1914485 0.45219857 0.31465495 -0.61286384 0.20837969 -0.21550134 0.060447358
14 0.037192363 -0.676752 -0.46834588 -0.108524784 0.19584633 -0.4218028 0.5256243 -0.4983406 -1.340757 -0.43267837 0.014618197 0.19905782 0.13915333 -0.55070096 0.68105197 0.3420212 -0.10025053 0.9322393 -0.48708534 0.4136758 -0.5596179 0.53431916 -0.11187171 -0.11722127 -0.95867264 -0.3631532 0.00040032112 0.7569423 -0.45400605 -0.32696065 0.97463685 0.013685897 -0.63233536 -0.28832778 -1.0239486 0.3306802 -0.057291716 0.37049967 -0.27739647 -0.85895586 -0.88198054 0.36471793 -0.5504639 -0.10662569 1.410731 0.3207568 -1.2780633 -1.0911965 0.7425952 -0.12676448 -0.40221938 -0.070610724 -0.38465613 0.4609403 0.042192157 0.16928248 0.800898 -1.1646235 0.34416765 0.6841482 -0.8909246 -0.2502312 -0.86331874 0.38854524
15 0.15365212 -0.3213238 -0.3967677 0.041237675 0.39801076 -0.96038 0.1549438 0.11433431 -1.6664712 -0.42108303 0.04842591 0.2037379 0.16654272 -0.22451396 0.75843596 0.2728797 -0.1384685 0.55273026 -0.42144734 0.37352538 -0.51753485 0.7004678 0.21848711 -0.4181953 -0.7230759 0.17158304 -0.3004949 0.9109105 -0.34495115 -0.07790183 0.8965932 0.21934208 -0.7134614 -0.7242322 -0.38774693 0.18969879 0.27787894 0.54067284 -0.27952138 -1.1438843 -0.93989366 0.3693921 -0.5163981 -0.22735474 1.0304385 0.78565645 -0.99125123 -1.0993854 0.5084968 0.1791273 -0.14071228 0.33815578 -0.569082 0.36700124 -0.21503119 0.5164447 0.37103653 -0.9783303 0.3274454 0.71373457 -1.1395681 -0.04940397 -0.83503485 0.49689388
16 -0.04182143 -0.41164455 -0.3044495 0.20785646 0.45594683 -0.8566249 0.2326146 0.014303678 -1.5828708 -0.43217334 0.09574753 -0.0231824 0.32789063 -0.1624141 0.94166136 0.24059877 -0.22702347 0.49880013 -0.36715493 0.30110773 -0.3644133 0.61533964 0.03218858 -0.40479916 -0.6699037 0.16841452 -0.112277135 0.9674755 -0.5213277 -0.12840986 0.8511101 0.08660512 -0.54496974 -0.7377993 -0.3459126 0.24397424 0.35797176 0.3505209 -0.1987955 -0.9342512 -1.0076284 0.3865755 -0.39692843 -0.40689147 0.8909435 0.5905293 -0.86886936 -0.9119705 0.40950868 0.5345274 -0.111089 0.17260715 -0.5386059 0.43822432 -0.046838276 0.1542337 0.22165164 -0.7939598 0.22431172 0.8770171 -1.0409114 -0.28999013 -0.8533473 0.4004084
17 -0.02614226 -0.52776223 -0.46976566 0.47251236 -0.024570059 -0.9187574 0.08287863 -0.30452573 -1.30305 -0.34584427 0.23420677 -0.306848 0.2614537 -0.45586434 0.9638802 0.6874941 -0.48900297 0.3213549 0.008902682 0.65851307 -0.31733686 1.212184 -0.2650526 -0.54888713 -0.5301218 -0.11061644 -0.09867453 0.86830187 -0.38292658 -0.26760775 0.6899506 0.08808422 -0.5358488 -0.66915613 0.0071700993 0.26767612 0.26610336 -0.017760357 0.00018780155 -0.72686356 -0.8676848 0.043692928 -0.13332647 -0.45172915 1.03776 0.10644746 -0.46746063 -0.28649774 0.9467712 1.1132724 0.049395647 0.061106186 -0.79799217 0.73230225 0.54226154 -0.3978295 -0.49012366 -1.1703703 0.14538781 0.9586102 -0.545699 -0.15822737 -0.8386254 -0.07509739
18 -1.2004615 -1.3560214 -0.8911315 0.16038033 -0.26389757 0.7649263 0.222552 0.41410515 -0.9727585 0.22202533 -0.17751163 -0.60023224 -0.440907 0.28201896 0.7394267 0.51024556 -0.07433064 -0.12681878 -0.39466375 0.63430834 -0.031259693 0.5155996 0.2016535 -1.6051263 -0.4885392 0.56395584 -0.42529377 -0.13428298 -0.19712096 -0.8779937 -0.24616164 1.2554233 -0.124305144 -0.2989232 -0.017320812 -0.38006562 0.20397893 -0.11380993 -0.43541583 -0.31587082 -0.117925584 0.28153616 0.69973284 0.39209744 0.13133623 0.31398463 0.071219966 -1.4534776 -0.37948784 -0.2567763 0.3460624 -0.5108541 0.5114362 0.4952431 -0.25927216 0.27466318 0.60340065 -0.45966578 -0.0067089386 0.46348122 -0.50202274 -0.58391094 -0.3536923 1.0360696
19 -0.57904124 -0.7271896 -0.32677934 0.31020966 -0.0791765 0.58170515 0.061543494 0.17481793 -0.7315986 -0.23040807 -0.49803296 -0.33729857 -0.33408368 0.06569037 0.2932937 0.3656676 -0.107388824 0.19515017 -0.24511659 0.60373354 -0.116413586 0.40518287 0.06442577 -1.7091155 0.14196132 0.55090714 -0.9170671 0.09966308 -0.23364894 -0.40647107 -0.10968675 1.083159 -0.38393217 -0.47601652 0.41805744 -0.10159455 0.7443472 0.8299373 -0.38193965 -0.47802362 -0.25918254 0.39253354 0.75219 0.3707948 0.036070485 0.7533907 -0.18865421 -0.99861455 -0.28716725 -0.10189443 0.15629126 -0.33067667 0.72794837 0.6520045 -0.20438811 0.8300539 0.6948775 -0.14484173 -0.101322874 0.4305717 -0.6436599 -0.22300793 0.013951183 1.2472914
20 -0.5194272 -0.5829169 -0.27801985 0.12711069 -0.17184958 0.13050461 0.20804192 0.05112168 -1.0348905 -0.32124215 -0.31116864 -0.37557867 -0.08977835 -0.37162983 0.20888032 0.087182395 -0.07324508 0.13584125 -0.31081966 0.65119433 -0.20612541 0.4295772 0.23273902 -1.4801115 0.22888486 0.6814062 -0.72064775 0.10276984 -0.17095076 -0.29691854 0.09852797 1.0892215 -0.56467474 -0.50632393 0.3780632 -0.11619062 0.61156946 0.748022 -0.3949463 -0.27481425 -0.24401383 0.36529216 0.6807669 0.2761331 -0.10527101 0.46921825 -0.086620644 -1.0082812 -0.10026527 -0.05121572 0.6239295 -0.44498566 0.61268073 0.79480267 -0.3968659 0.9150192 0.9713942 -0.2959389 -0.32008898 0.7120894 -0.43807662 -0.1888535 -0.18364802 1.0660825
21 -0.17779224 -0.5388364 -0.15279993 -0.26260734 -0.117182665 -0.39708292 0.086898066 -0.07346072 -1.0820717 -0.17805807 -0.23230867 -0.15784222 -0.08956837 -0.4678458 0.38748723 0.11908858 -0.38723028 0.19733769 -0.33561084 1.1258051 0.013906674 0.5209546 0.16940695 -1.5492706 0.38219315 0.7165461 -0.4444637 0.18718338 -0.28437242 -0.32434312 0.024627352 1.0588177 -0.7672477 -0.659967 0.5481281 0.21170527 0.44546184 0.5418842 -0.2682953 -0.48642045 0.2002774 0.459151 0.6987884 0.31390125 0.033501375 0.70479846 -0.32065892 -1.0779341 -0.46688503 -0.029819306 0.3691867 -0.5916199 0.31342715 0.88417566 -0.3133597 0.6996918 0.4847114 -0.27040341 -0.17535104 0.54336095 -0.502375 0.08809236 -0.29398593 0.9866726
22 -0.20394424 -0.44754753 -0.21792349 -0.5718233 -0.07016273 -0.48493096 0.06071259 -0.009330217 -1.2857895 -0.7393901 -0.5914572 -0.09780816 0.08391717 -0.5043016 0.5230418 0.17841488 -0.75913376 0.42427975 -0.09379284 1.030407 0.25190818 0.14481209 0.34498262 -1.334595 -0.04733434 0.6641765 -0.56357306 0.2650847 -0.15895423 -0.36097345 0.23489203 1.0402461 -0.6308787 -0.508116 0.4593403 0.18249291 0.8423403 0.806802 -0.5548888 -0.2989267 -0.22909819 0.5423751 0.6259593 0.20255272 0.44033346 0.48149025 -0.44370565 -1.0809845 -0.38494733 0.012598262 0.5078542 -0.39938244 0.35615137 1.1593581 -0.9066528 0.79684585 0.5167375 -0.1343886 0.10539762 0.16981961 -0.84710515 0.07615961 -0.47781226 0.26916465
23 -0.21127693 -0.40849537 -0.18142194 -0.53236604 0.06292111 -0.48273593 0.21813686 0.3217631 -1.3585632 -0.36642143 -0.36254042 -0.27097443 0.23058692 -0.5947129 0.6773896 0.1973877 -0.6375567 0.103190616 -0.10966187 0.6755856 0.1506396 0.26770556 0.23387001 -1.1822281 0.2551038 0.58036155 -0.3152958 0.28774583 -0.18748192 0.015908852 0.45633122 0.97675306 -0.8917452 -0.62244403 0.33496895 0.38818935 0.43702993 0.86241645 -0.64041865 -0.24566957 -0.44938347 0.49956852 0.05660601 0.11922095 0.22432223 0.5427777 -0.43338394 -0.95403093 -0.19491518 0.25671855 0.29391983 -0.029049784 0.21150945 0.7822731 -0.7758343 0.83388865 0.5200005 -0.5132275 -0.004944869 0.16208299 -0.7128028 0.35764816 -0.32964316 0.5667996
24 -0.21891227 -0.27546957 -0.20145698 -0.6254853 8.848221e-05 -0.7309696 0.38347858 0.48598868 -1.4588178 -0.29421368 -0.38289684 -0.47920695 0.2470537 -0.7185444 0.849534 0.43775368 -0.6929968 -0.09699055 -0.14754808 0.447352 0.16273971 0.5081036 0.03561395 -1.2425104 0.2289501 0.6446261 -0.3272623 0.24996695 -0.14575712 0.05200468 0.5938455 0.7550135 -0.92151 -0.8743291 0.101880066 0.53865105 0.32718706 0.82547617 -0.4509823 -0.5617846 -0.4105412 0.48990697 -0.19010948 0.07858704 -0.04439691 0.6553882 -0.5624863 -0.90581214 -0.21245952 0.46850103 0.13136876 0.10186792 0.1357136 0.69734955 -0.8616955 0.833046 0.5144301 -0.67921126 -0.013641026 0.40506488 -0.7323648 0.48701635 -0.5055239 0.45434782
25 0.24106608 -0.33637226 -0.20528017 -0.726807 0.35471272 -0.7523768 0.5265178 0.48994932 -1.5322543 -0.40560794 -0.08262287 -0.46771508 0.55359626 -0.1785126 1.411952 0.40350872 -0.5283691 -0.21003701 -0.0150569035 0.5117663 -0.57945377 0.3279698 0.2968626 -1.1914077 0.35536814 0.76252735 -0.4076798 0.7217841 -0.0032682559 0.012417038 0.7305434 0.9783229 -1.0303643 -1.0754545 0.7815923 0.1936284 0.5392905 0.4686959 -0.54062665 -0.76734686 -0.9343092 0.5690175 0.17982502 -0.4815348 0.2371709 0.92515504 -0.6594589 -0.87626475 0.30510655 0.61330265 0.09511497 0.124276064 0.11226524 0.73709095 -0.4762579 0.6296637 0.38960114 -1.7769625 -0.286732 0.4592156 -1.3035613 -0.47545066 -1.0961307 0.5277283
26 0.34539065 0.28688118 -0.61119616 0.5828432 -0.3525278 0.2712772 0.1497144 0.3522969 -0.4177507 0.2001815 0.72337705 -0.21860792 -0.34948593 -0.30920517 0.2622759 0.7611345 0.0062018842 0.40466273 -0.19489148 1.6415806 0.24050854 0.62867635 0.901499 -0.5803755 -0.8723277 -0.040737938 -1.0915546 0.41648802 -0.0054536383 -0.45608902 1.280604 0.35554415 -0.001864722 -0.9296208 -0.593685 -0.7179555 0.6958152 0.17270064 0.5526591 -0.47527775 0.63681275 0.71288854 -0.5231502 -0.16431987 0.18331054 0.58674455 0.6155368 -0.43669325 0.30490634 0.8658813 0.5649107 0.1199111 0.9367167 -0.29103276 0.2966077 0.61113423 1.030175 -0.22464772 0.6759723 -0.2531676 -0.36905596 -0.37766728 -1.0904548 0.0008431036
27 0.47584876 0.05316064 -0.5754838 0.30083087 0.032668766 0.15163115 0.41572264 0.051225357 -0.4705422 0.23044108 0.4701724 -0.202975 -0.287028 -0.026449228 0.20118177 0.7354158 -0.06561982 0.29864508 -0.47318292 1.5314325 0.14861523 0.44787315 0.54660666 -0.5429853 -0.89696616 0.06953554 -0.9521864 0.35982797 -0.086570226 -0.52131647 0.9440322 0.23818539 -0.023551784 -0.71360666 -0.43309125 -0.27357513 0.4080146 0.023637429 0.57827467 0.079646796 0.34792423 0.2716467 -0.19704306 -0.26285455 0.30674985 0.49207312 0.6403387 -0.3650376 0.22522981 0.6131412 0.52503055 0.39683905 1.036151 -0.3006898 0.093128785 0.65235794 1.0900234 -0.2575271 0.68757975 -0.18330051 -0.18661524 -0.35387462 -1.0760624 0.2165321
28 0.3794942 0.005263219 -0.731397 0.21997845 0.08766201 0.16319732 0.25785387 0.10822656 -0.51115733 0.37697598 0.65220916 -0.12671882 -0.28543016 0.010698778 0.30787143 0.7069091 -0.06431415 0.3565888 -0.3894726 1.592539 0.2939011 0.500854 0.5892822 -0.8201687 -0.9101476 -0.045272075 -1.1137301 0.41955522 -0.20244366 -0.5763592 0.9297486 -0.037633006 0.10324093 -0.8182147 -0.42032006 -0.19665298 0.47444856 -0.04716513 0.6564447 -0.03190936 0.46718648 0.44157788 -0.23365897 -0.26939213 0.29418606 0.56475353 0.5414376 -0.34151193 0.29090258 0.5798947 0.48913184 0.44708055 0.9158561 -0.42855304 0.16624624 0.73403895 1.146815 -0.38647103 0.77492464 -0.31553578 -0.33635637 -0.31690076 -1.1635163 0.26431826
29 0.37998375 -0.14350908 -0.556876 -0.03183386 0.11989126 -0.08274066 0.58234966 -0.046202093 -0.44994718 0.68540555 0.62602085 -0.014051312 -0.49280348 0.18649776 0.2539946 0.89335924 -0.01618248 0.19278413 -0.5549991 1.5612419 0.28052545 0.3626794 0.2242299 -0.6413868 -0.8488803 -0.14530973 -0.82324916 0.34691918 -0.096569456 -0.3065304 0.71621734 -0.016558245 0.13226058 -0.4981659 -0.41700843 -0.058358967 0.25872964 -0.19037794 0.41282988 0.38999125 0.22384946 0.20939396 0.067674585 -0.4098696 0.10181751 0.44827121 0.4223672 -0.2447283 0.3539409 0.6161339 0.24738833 0.5450738 0.69205385 -0.49018836 0.13736862 0.7426254 1.0012871 -0.48157895 0.55950963 -0.16508986 -0.28987673 -0.34539637 -0.96726775 0.508941
30 0.29888672 -0.24068512 -0.65806794 -0.26816204 0.24849501 -0.03931639 0.5356937 0.08094267 -0.5276892 0.8312276 0.7434484 -0.21964361 -0.5179814 0.19450255 0.4005163 1.0504472 0.020666342 0.31130055 -0.49179444 1.5394465 0.33261216 0.37773594 0.03417422 -0.9231846 -0.76642823 -0.2094022 -0.89351547 0.28427392 -0.12403326 -0.40854958 0.7077216 -0.119103745 0.28101343 -0.48762065 -0.37552407 0.14824665 0.36846593 -0.20814024 0.33472344 0.38814542 0.25579584 0.17105342 0.2443 -0.5523111 0.2565301 0.5257995 0.35971338 -0.24091466 0.40065297 0.45709977 0.272053 0.62215614 0.789118 -0.68420833 0.1656913 0.7257661 1.0997766 -0.5801708 0.5648337 0.07551087 -0.3709853 -0.22616303 -1.0629888 0.43060374
31 0.18518874 -0.25873798 -0.6194174 -0.29614145 0.29341948 -0.13794416 0.6622721 0.05348501 -0.49853492 0.8413903 0.7571049 -0.050490372 -0.3977479 0.16622992 0.36628634 1.0823747 -0.044824667 0.35921422 -0.45232463 1.4039844 0.2831261 0.40464368 -0.07672326 -1.0574499 -0.6794247 -0.28237996 -0.783344 0.2663207 -0.0024722808 -0.5165781 0.54776937 -0.05409972 0.3501527 -0.3939577 -0.41216573 0.19546463 0.37891507 -0.27848986 0.4192988 0.43430477 0.26041457 0.15374276 0.31739637 -0.581168 0.18189792 0.49346128 0.24882954 -0.3366779 0.43052238 0.33619633 0.2584482 0.62997067 0.6463313 -0.6588854 0.23601215 0.68753153 1.0337453 -0.6165703 0.48760518 0.035406537 -0.26547995 -0.27274376 -1.0046763 0.48771703
32 -0.0016791295 -0.3400709 -0.7705807 -0.3889251 0.28897148 -0.07147326 0.74892044 0.02313948 -0.37754306 0.9900786 0.953392 -0.021258192 -0.34798002 0.07875226 0.21853624 1.1750854 -0.16073808 0.37910894 -0.43826044 1.2694709 0.264441 0.3832079 -0.04445334 -1.0839258 -0.5388357 -0.2692038 -0.723034 0.094161116 0.11194203 -0.29340938 0.41987216 -0.08529357 0.24193129 -0.13785651 -0.27200118 0.3682447 0.2594038 -0.26201385 0.40978202 0.35440508 0.1572231 0.15036972 0.25417382 -0.59072477 0.32907417 0.5565821 0.047327362 -0.48452008 0.39162645 0.37542585 0.32145974 0.64585537 0.5734307 -0.69204026 0.16269104 0.67861795 0.9843814 -0.62217623 0.41525453 -0.07914725 -0.35116574 -0.138853 -0.9239022 0.51866645
33 -0.0514626 -0.2520437 -0.8116783 -0.46199018 0.31754827 -0.08329671 0.8198645 -0.05432879 -0.37381384 0.95910215 1.007145 0.010333712 -0.34689522 0.058922347 0.16379827 1.1930988 -0.25657073 0.5089114 -0.39043707 1.2635154 0.25547004 0.42386004 -0.037834108 -1.3024362 -0.5682575 -0.38007325 -0.643351 0.12025933 0.14912602 -0.25840297 0.5675997 0.022885932 0.11232665 -0.13194472 -0.28217354 0.5257989 0.2273228 -0.2423393 0.43672583 0.5139889 0.18919149 0.15072408 0.27711874 -0.6481529 0.51365596 0.6292715 0.03417103 -0.60959005 0.484907 0.43892527 0.36942232 0.7770275 0.49275842 -0.62972087 0.10585145 0.6673071 1.0571427 -0.8002047 0.4660457 -0.16342954 -0.31709132 -0.08691656 -1.0351437 0.66326886
34 -0.040603135 -0.021676118 -0.8613475 -0.69057953 0.3949269 -0.19234069 0.8357606 -0.15794593 -0.123779684 1.2746307 1.0714843 -0.0100385 -0.45241144 0.07046566 0.25261724 1.2256204 -0.3712956 0.601175 -0.49172863 1.3297602 0.19226661 0.44025892 -0.28726688 -1.4818404 -0.56517 -0.24452338 -0.60599494 -0.07900477 0.18611655 -0.078207195 0.748055 -0.016991677 -0.11459887 -0.02052671 -0.13240148 0.89475447 -0.055307258 -0.20916422 0.306301 0.5798846 0.02793417 0.053662065 0.2322153 -0.83459234 0.7082009 0.555596 -0.046984922 -0.63705856 0.5821841 0.6485083 0.3192899 0.9107948 0.40346733 -0.82798254 -0.025099715 0.60447794 1.0550781 -0.9585223 0.27942827 0.015566761 -0.65421283 0.15906413 -1.0838675 0.7801821
35 -0.35525218 -0.4592552 -1.192719 -0.41841322 0.12379388 -0.22463953 1.0771786 -0.35680473 -0.5545668 1.2839532 1.1183336 -0.0010684088 -0.4434027 0.053901274 0.21114127 1.4118848 -0.2393944 0.6249136 0.09525586 0.80648386 0.3356823 0.58678466 -0.49743414 -1.2657146 0.081246905 -0.6940673 -0.5632654 -0.050271135 0.502547 -0.2798387 0.42218274 -0.10349126 -0.010571154 0.37258396 -0.13615476 0.51589763 0.5914434 -0.49467117 0.3101889 0.34668434 0.16199681 0.064864166 0.5800793 -0.71854144 0.4640104 0.8847735 -0.42791885 -0.9999504 0.5241303 0.23701094 0.37988377 0.424757 0.20034614 -0.9759183 0.100190304 0.53651524 0.91060436 -0.9189434 0.17772947 -0.3357782 -0.036250506 -0.1966108 -0.9025392 0.7064918
36 -0.590327 -0.18149962 -1.2130787 -0.61096317 -0.299477 0.47746617 0.97388166 -0.43772227 -0.48588622 1.000228 0.83414555 -0.9506457 -0.3485467 -0.75463307 0.592038 0.8789332 -0.111452036 0.49945685 0.4286048 0.7893192 -0.0020665114 0.22897989 -0.51846266 -1.3486062 0.5326193 -0.05925128 -0.009727872 -0.39650556 0.61707383 0.25201848 0.72257036 0.21346916 0.39573506 0.77209294 -0.5914936 0.09469432 -0.104609035 -0.42171124 -0.14990658 -0.055642907 -0.09623984 -0.07161405 0.101913854 -0.31698117 1.0225565 0.07009742 -0.038544647 -0.21617809 0.5379963 0.72848696 1.04686 -0.032940056 0.64334166 -0.7294504 -0.2862981 0.40395415 0.324513 -0.9400924 0.10602891 0.340085 -0.044651534 0.3985513 -1.0104526 0.22400972
37 -0.81564385 -0.31185552 -1.3931652 -0.5888375 -0.4328877 0.6697459 0.85317904 -0.3785251 -0.8849537 0.91051596 0.9746068 -1.405503 0.115808465 -0.77931756 0.532096 0.82603854 0.25707626 0.6085434 0.49250844 0.6298522 0.069126576 0.37987673 -0.54051185 -1.190801 0.04787805 -0.1366572 -0.18102077 -0.4688757 0.7819804 -0.0036258139 1.1660707 0.38883996 0.36097276 0.5261919 -1.0566305 0.27228028 -0.11979731 -0.32760328 -0.529823 -0.043761365 -0.21652824 -0.12117675 0.2002097 -0.12877308 0.77860546 0.049112722 0.29833353 -0.55496264 0.58142877 0.51062804 1.2363657 0.087335184 0.17280571 -0.35068798 -0.3290099 0.5882585 0.077913195 -0.65091383 0.05624344 0.21585467 0.04621498 0.8383175 -0.68484914 0.586577
38 -0.75784 -0.28798658 -1.2885643 -0.7466043 -0.50420433 0.44548458 1.16268 -0.20910989 -0.9550474 0.30881608 -0.4106428 -1.2514149 0.24028452 -0.8017395 0.31170008 1.1935182 0.6989796 0.6875961 0.18641037 0.57969964 0.060174216 1.1787248 -0.5667498 -1.1246557 0.6439568 0.37617224 -0.39733544 -0.558112 0.7297076 0.06859021 1.1576568 0.40027788 -0.16623205 0.65657014 -1.1193815 0.5263236 -0.5169876 0.080267735 -0.23552436 0.14103729 0.0008110126 -0.13324384 0.19025624 -0.4604168 -0.044099372 0.22221659 -0.34898284 -0.2423102 1.1309892 1.4390522 0.80253565 -0.5668936 0.7517545 -0.5700693 -0.47116917 0.34307498 0.14345859 -0.7844882 -0.59251255 0.13834141 -0.19785772 0.7286795 -0.5675752 0.08749352
39 -0.7742086 -0.26781186 -0.7683028 -0.47556227 -0.7011555 -0.22629125 1.0844641 -0.3464135 -1.2774875 -0.13421172 -0.19924095 -1.2497416 0.3468916 -1.2631005 0.4642686 0.47791114 -0.10317249 0.6507347 -0.14936134 0.50336885 -0.047466937 0.47105503 -0.929457 -1.285882 0.52264935 -0.16977279 -0.093271166 -0.44051662 0.27442756 0.058634862 1.2413242 0.030987348 -0.14124677 0.061155476 -1.0736687 0.24431416 -0.2466457 -0.16361433 -0.041399375 -0.044810902 -0.3698976 0.09779438 0.63271016 -0.15683322 0.022196108 -0.1749111 -0.20920515 -0.7530428 0.16125616 0.91553724 0.7133772 -0.071678475 0.12733799 -0.25228763 -1.1120564 0.26487646 0.74524945 -0.8732545 -0.41549698 0.65805805 0.30377474 0.69279635 -0.44764635 0.12388726
40 -0.7943909 -0.3436511 -0.4287617 -0.84643686 -0.97149384 0.01735146 1.3617148 -0.27826023 -1.950417 -0.0771032 0.04913954 -1.1131499 0.22453202 -1.4928886 0.3748945 0.31030422 -0.0231579 0.42181313 0.019431507 0.70609194 -0.4272385 0.46191826 -0.4023666 -1.3545667 0.32251012 -0.38161492 0.008877882 -0.2584649 -0.024027836 -0.15386836 1.0835443 0.06991783 -0.38800964 -0.029564569 -0.75512797 0.4032315 -0.06392955 0.41456518 -0.008323447 -0.2473813 -0.7062058 0.331557 0.4472308 0.10289956 0.3787336 0.045875963 -0.38768294 -0.73511803 0.28882384 0.76919043 1.2545152 -0.5085116 0.07236663 -0.2924685 -0.77831656 -0.10142967 1.0942645 -0.8402247 0.14644445 0.51341903 0.010107373 0.5552897 -0.4256531 -0.062359132
41 0.031635594 -0.628366 -0.6948705 -0.99085104 -0.10044188 -0.17356078 1.0070838 0.090627745 -1.6116366 -0.004812193 -0.13941132 -0.7253026 -0.19265452 -1.0444586 0.4065199 0.5909882 -0.11790238 0.31440717 -0.12588225 0.091628015 0.32392275 0.17050093 -0.35679156 -0.8646039 0.1028461 -0.5216409 -0.047368597 -0.088696845 -0.065639526 -0.05535868 1.1033487 0.32914817 -0.44310415 -0.53342444 -1.2164544 0.5375211 -0.39144978 0.44794866 0.19094968 -0.38462415 -0.4441821 -0.068665534 -0.10393149 -0.12935133 0.70386857 -0.24817064 -0.9006685 -0.7565613 -0.0426482 0.15003327 0.7640872 0.30722323 0.18503298 0.079864234 -0.5517444 0.39604428 0.6462861 -0.30745798 0.53024596 0.5410966 -0.39444292 0.42280766 -0.041558582 -0.19862026
42 0.1990774 -0.19804193 -0.4089443 -0.3766586 0.14023326 0.06381323 0.65940726 -0.0051489356 -1.5955418 0.28796268 0.26569688 0.4456018 -0.7176425 -0.7348942 1.0741084 1.0440933 0.30063063 0.61106086 0.040709693 0.622218 0.5296019 -0.25701785 -0.42036662 -0.68116945 -0.014755191 -0.30664232 -0.14342795 0.07678991 -0.92977947 -0.33573914 0.6197827 0.26896924 -0.24344566 -0.23009792 -1.2268568 0.39579254 0.0018503888 0.74452865 0.45324585 -0.54029495 -0.025807112 -0.43962863 0.32083648 -0.456758 1.2737495 -0.9059819 -0.7880044 -0.79974526 0.6579381 0.0051163845 0.68896574 0.101815805 0.43560252 0.24113014 -0.18181756 0.18044388 0.34625208 0.0040614638 0.56982034 -0.015798897 -1.3160058 0.38563108 -0.8989054 0.24876441
43 0.06273874 -0.11697225 -0.21588556 -0.3284227 0.09235866 -0.07706739 0.7029785 -0.36177093 -1.4758413 0.44405362 0.62848717 0.30752948 -0.7525181 -0.78204584 1.4355493 1.5640035 0.1604537 0.4953874 0.076224335 0.38875127 0.67643356 -0.153778 -0.49800077 -0.7734123 -0.18835601 -0.32277814 -0.26914582 0.22993809 -1.0513299 -0.5960849 0.70301175 0.20068689 -0.37911293 -0.0019966653 -1.6883956 0.4938981 0.23422916 0.7633671 0.545741 -0.55080676 0.19210762 -0.50240594 0.5902092 -0.45361263 1.3576437 -1.1675538 -0.84747064 -0.7509685 0.6133033 -0.09721259 0.8964807 0.3144397 0.90356773 0.20124151 0.12561537 -0.002285379 0.23622869 -0.03904568 0.34107468 0.084831744 -1.2967459 0.1222698 -1.0912793 0.06979483
44 0.47007945 -0.26029792 -0.8022899 0.09672694 0.51497215 -0.2528313 0.09626758 0.37513286 -0.1652479 -0.40110576 0.54650015 -0.11162166 -0.35815814 -0.14480422 0.26090458 1.2061703 -1.1513258 -0.16798222 0.4779779 -0.22270249 0.24853416 0.2145905 0.66128474 -1.4869903 -0.13268265 -0.10968596 -0.75537187 0.69422036 -0.04022629 -0.09933279 0.8258202 -0.0114142895 0.6463314 -0.4980635 0.29428807 -0.39166263 -0.25528204 0.033903208 0.15124911 -0.2534521 -0.05964325 -0.5303145 -0.891605 -0.30404007 0.8063245 -0.61652005 0.21077767 -0.85137254 0.028058639 1.3884081 -0.16606382 -0.27213252 0.11600917 0.81548834 0.19841973 0.09020104 0.7764057 -0.37317482 -0.57423544 0.14818029 -0.4863778 -0.8759468 0.21279897 0.45903337
45 0.6465262 0.57296497 -0.65101963 0.18556784 -0.17137855 0.07685215 0.538251 0.23446389 -0.5053639 -0.7302513 -0.2602375 -0.7943011 -0.12428085 0.43590945 0.21474887 -0.09371169 -1.5462867 0.2776887 0.2574332 0.57094836 -0.33554983 1.0982329 0.25892302 -1.2237483 -0.22770615 0.49187583 -0.42287827 0.6496666 0.08291165 -0.6283287 0.48740503 -0.48545727 -0.3758638 0.121986434 -0.41398242 0.42923447 0.17793544 0.53766805 0.6513152 -0.6538472 -0.26647517 0.028808298 -0.85493016 1.217373 0.47415033 0.19382274 0.011065609 -0.7896675 0.5416247 0.9041774 -0.25150794 0.119314305 0.6902388 0.92916614 0.009356051 0.33322197 0.88174427 -1.0782741 -0.35553128 -1.0629808 -0.9099526 -0.6658968 -0.45371133 -0.30536196
46 0.08443706 0.031374548 -0.2835691 0.56161636 -0.45423403 -0.04150654 -0.20529754 0.43589848 0.09595063 -0.2066225 0.56881523 0.048210602 -0.7089867 -0.32919422 0.65024877 1.7201843 -0.7088765 -0.7304607 -0.59858346 0.9900006 -0.01184741 0.6627284 -0.05738383 -1.1726758 -0.2653304 0.5406975 -0.5169608 1.4227628 0.21447386 0.09263324 1.0166053 0.16939732 0.8003751 -0.39873043 -0.06845794 0.10458314 -0.33715418 0.49989986 0.5804761 -0.20908394 -0.13115454 -0.033970237 -0.86231166 0.122499384 0.79822165 -0.5968062 -0.50232047 -0.6170445 0.55625343 1.5582945 -0.12588045 -0.22714823 0.2947264 0.32341492 0.47838113 0.48756808 0.41217297 -0.46998262 -0.5980377 0.48010042 -0.21887045 -0.7990401 -0.16627648 1.0305662
47 0.45056203 0.118802756 -0.48936382 0.48453316 -0.76237 -0.020229537 -0.32829022 0.5712959 -0.018254085 0.09066795 -0.063192196 0.17629407 -0.48546842 -0.6324256 0.15916184 1.912884 -0.73914385 -0.19145553 -0.84587824 1.2131006 0.086546525 0.65111023 -0.467528 -1.4171618 -0.85600984 0.78390276 -0.40675154 1.1498387 0.70929694 0.28487706 1.3729147 0.19983923 0.9701717 -0.591124 -0.226341 0.22818372 -0.31847322 0.36521947 0.6140052 -0.14283267 -0.2553368 -0.08889948 -0.9669491 0.41925701 0.66914946 -0.4917087 0.0089326985 -0.32124603 0.5018642 1.1661377 -0.032724276 -0.22560354 0.15022056 0.2580979 0.30283585 0.2397896 -0.03492507 -0.67379403 -0.37452444 0.27654475 -0.15998352 -1.0220273 -0.40979975 0.7669029
48 0.2223444 0.34940517 -0.6703901 0.78428894 -0.44146252 -0.0993978 -0.19566727 -0.45849162 -0.35715666 0.5337028 0.898374 -0.35871077 -0.5730382 0.2766053 -0.33013517 0.44379723 -1.396105 -0.13330902 -0.00055905 0.74588144 0.40269455 0.58337444 -0.075479314 -2.1421978 -1.2376293 0.58359456 0.14077927 0.7838043 -0.073423706 -0.10664678 1.1146468 0.6814667 0.16109331 -0.5879095 -0.872941 0.86749995 0.5922039 0.17943113 0.5716414 0.55691564 -0.41402656 -0.2926718 -0.6256553 0.8670464 0.1926215 0.25232413 -0.23665899 -0.14666899 -0.12936527 1.1866922 -0.248019 0.2942623 0.016601404 0.5943052 -0.20509715 -0.2956477 0.05765595 -1.1511097 -0.73916036 -1.1495955 -0.29114366 -1.3237591 0.04248063 0.7399339
49 0.015623713 0.5569604 -0.7001244 0.5338151 -0.27386785 0.38763425 0.46233132 -1.0912794 -0.37342188 0.07923624 0.35395578 -0.9362652 0.9274719 0.6074291 0.89264137 1.8739425 -0.8204297 0.104845285 0.4539404 0.6941674 0.02621245 -0.02157534 0.24497965 -0.90271676 -0.74488884 0.37394217 0.5802182 -0.025430074 -0.4227388 -0.33335355 0.4228436 0.3724973 0.50420356 -0.6513452 -0.28377816 0.048423294 -0.9538039 0.03814441 -0.9213314 0.04859086 0.28164172 0.5471685 0.7633878 -0.5941347 1.0436747 -0.1398713 0.021319613 0.39343154 0.32063177 0.58052766 -0.3021012 -0.85579926 0.35385537 0.025982248 -0.5352023 0.28777355 0.54845124 -1.0960606 -0.63101625 0.986739 -0.19484709 0.45263284 -0.45650408 0.5908357
50 0.19848326 0.41632447 -0.71466094 0.6070392 -0.45842412 0.6326488 0.7919204 -0.89335483 -0.29770765 0.03270668 0.12248626 -1.1729087 0.6878721 0.34707674 1.1490902 1.8015954 -0.7764138 -0.13046838 0.40867537 0.43568215 0.17543913 -0.259556 0.39683554 -1.1149672 -0.7060919 0.4499365 0.23351483 -0.034611225 -0.23901182 -0.53212494 0.7411949 0.72966135 0.33711195 -0.6626588 -0.21981962 -0.061357446 -1.1008795 0.1429498 -0.60801303 0.02876053 0.7315859 0.45816407 1.0949064 -0.5155009 1.1948259 0.30437326 0.06579459 0.3656372 0.3965968 0.27383626 -0.44096684 -0.636242 0.65171653 0.15524772 -0.62880856 -0.048946597 0.5516276 -0.9633553 -0.7386385 1.1026149 -0.50556207 0.42474556 -0.279257 0.7530796
51 0.33265537 0.33449492 -0.4027157 0.8356585 -0.4139351 0.9240748 0.36135262 -0.9171344 -0.63863164 -0.0030411915 0.16792497 -1.0764217 0.83932793 0.05263589 1.191106 1.304334 -0.76531553 -0.35893527 -0.09589909 0.29331535 -0.066992104 -0.2908762 0.2682566 -0.9777073 -0.30242506 0.21077219 0.12889485 -0.36768144 0.2106814 -0.99604285 0.98163044 0.64959556 0.2927134 -0.638473 -0.36945057 -0.28702155 -1.0563332 0.386727 -0.41826236 0.08915187 0.5478227 0.53693485 0.892548 -0.57099056 0.9280935 0.04583004 -0.043046813 0.10929433 0.13344012 0.30191153 -0.42504767 -0.54599595 0.6093803 0.12629302 -0.6961165 -0.0025932272 0.5095996 -0.7636667 -0.6567402 0.78343594 -0.78370345 0.18487597 -0.31227535 0.3124801
52 0.40946883 0.3937366 -1.0436102 0.68637586 -0.70837635 0.6421737 0.10814349 -1.0252514 -0.5238069 -0.39511964 0.016035752 -1.1557585 0.9853639 0.3057744 1.1981928 1.3400522 -0.7781322 0.07104932 -0.25868976 0.5827074 -0.49521586 0.032716744 0.25175372 -0.8583057 -0.58976316 -0.053514134 0.12512083 -0.27796084 -0.09952866 -1.3817949 0.97336644 0.9526068 0.028846277 -1.001789 -0.222536 -0.22390307 -0.7180091 -0.3283075 -0.32835266 0.38314068 1.1840718 0.37984115 0.24800554 -0.8413109 0.6212232 -0.12609471 -0.22555056 -0.05838482 0.14407161 -0.06865072 -0.1522756 -0.16002858 0.46464887 0.22057058 -0.46954614 -0.054472204 0.26043203 -1.0119569 -0.22014906 0.7181132 -1.3872575 0.27785438 -0.13991322 -0.27020338
53 0.312017 0.39044362 -0.7608571 0.2297895 0.053899243 0.8467419 0.6685686 -1.3040267 -0.14473143 -0.025265824 0.038765773 -1.134068 0.3766226 -0.36241108 1.3290216 1.2763039 -0.69717216 0.16738075 -0.4714709 0.21450268 -0.019011274 0.2041756 0.34593627 -0.76121414 -0.32218608 -0.06263951 0.26123917 -0.3363908 -0.7576227 -0.9093627 1.3270711 0.5485426 0.103583865 -1.0444523 -0.7131678 -0.43935645 -0.8882991 0.12313584 -0.8832037 0.04491934 0.48806125 0.49637166 0.20803 -0.79543453 1.1059865 -0.14201453 -0.33321682 -0.33891362 -0.5293307 -0.14702913 0.067186184 0.104838744 0.50548524 0.0976461 -0.6742485 -0.6293772 0.32763043 -0.90002835 0.053593755 0.7478585 -0.87133527 0.34759116 0.05556975 0.10844811
54 0.2258069 0.10511495 -0.8082297 0.21151085 -0.05525857 0.7663397 0.534403 -1.0292262 -0.8270344 -0.16830207 0.25490218 -1.218901 0.10056478 -0.4099647 1.0141356 0.84357023 -1.4109808 0.011212777 -0.352605 -0.0820772 0.10651769 0.033854365 -0.2936851 -0.65061265 -0.23436865 -0.0613607 -0.07378056 0.1332584 -0.038821667 -0.75649214 1.2925377 0.31197238 0.1603501 -0.74053675 -0.91428083 -0.2730187 -0.7190258 0.4868196 -0.5776514 -0.16249312 1.0966331 0.34069753 0.12979329 -0.4880913 0.7950216 -0.20950279 -0.44252208 -0.50579536 0.29895025 -0.5891182 -0.013077563 0.048299704 0.38469228 0.16695423 -0.4350763 -0.5561037 0.45844442 -0.26412937 -0.23086694 0.41641015 -0.61418235 0.30684477 0.049578555 0.1465329
55 -0.50305253 0.101713374 -0.46371436 -0.3573032 -0.1628038 -0.02189362 0.7036213 0.020504316 -2.3649728 0.28804582 -0.37823644 -0.40084258 0.28196988 -0.8805839 0.3183193 0.5242214 -0.18900329 0.2797464 0.037296727 0.59451973 0.2187495 0.7678683 -0.40539065 -1.1536692 0.8485684 0.066906124 0.18418945 -0.28863207 -0.053900935 -0.28534785 1.1901578 0.9332292 -0.9033457 -0.58027023 -0.9639874 0.73184013 -0.30204225 0.54316515 -0.53518367 -0.15870032 0.17262024 0.74757224 -0.6450541 0.2546405 0.46641386 -0.22542441 -0.30258396 -0.77073777 0.4017881 0.4445282 0.22158255 0.012327023 0.31719857 0.08180179 -0.42356136 0.062587455 0.38084075 -0.35031477 0.6308506 0.47282752 -0.36956608 0.508312 -0.31513345 0.3209956
56 -0.6965546 0.37716052 -0.44525072 -0.12046248 -0.44944945 -0.04908237 0.44102994 0.24520242 -1.5850004 0.5110924 -0.43623003 -0.9581083 0.08849255 -0.8586787 0.33368826 0.6987693 -0.222205 0.16512594 -0.053427495 0.37375712 0.10423505 0.77615345 -0.48318732 -1.2839837 0.43763974 -0.13869454 0.5969573 -0.28115278 -0.20617397 -0.504052 1.0044246 0.45548955 -0.9246747 -0.20490374 -1.2906201 0.76592976 -0.61576486 0.63971335 -0.10455194 -0.22969063 0.65254396 0.8595446 -0.70220757 -0.0029657986 0.2681811 -0.2896663 -0.06309399 -1.251514 0.07020472 0.73479193 0.08208016 -0.13444498 0.34437537 -0.05392874 -0.6018956 0.10012839 0.19752803 -0.6249773 0.29714856 0.33623683 0.048634395 0.36354333 -0.11183035 0.32886174
57 -0.63997203 0.28006023 -0.27507898 -0.0529962 -0.33311313 0.02468692 0.38979897 0.10652398 -1.3576758 0.34259406 -0.27610597 -0.9093714 0.0588844 -0.475429 -0.08234297 0.57568324 -0.44838154 0.029799365 0.09447093 0.34086663 0.14513846 0.75726974 -0.55781955 -0.95602095 0.43967563 -0.15419847 0.41852078 -0.4272356 0.056157384 -0.37541053 0.99555993 0.24670662 -0.47069559 -0.11335958 -1.113033 0.7214642 -0.25062203 0.40924639 -0.08520469 -0.2529724 0.36196095 0.37948808 -0.42575535 0.2652475 0.39804542 -0.30227348 -0.087605916 -0.6428256 0.06293882 0.7520939 0.22745593 -0.32061046 0.15221113 -0.3901542 -0.53066975 0.15774019 -0.010476347 -0.5101775 0.0560692 0.15198211 -0.016783178 0.52088934 -0.18942982 0.31928277
58 -0.80880135 0.26936308 -0.25931367 0.14339162 -0.2353615 -0.06102472 0.2829047 0.111673586 -1.9318842 0.7684436 0.09665176 -1.0847424 0.4841978 -0.66003853 -0.6490838 1.0093317 -0.16533977 0.11756839 0.3577876 0.5860639 0.0066411844 0.7552296 -0.33421677 -1.4882005 0.27311334 -0.35280254 0.36467028 -0.6268314 0.3368453 -0.57519656 1.2403393 0.2811269 -0.57724565 0.2570577 -1.616383 0.70290524 0.0015846309 0.35043615 -0.38261887 -0.21089165 0.5626677 0.35136324 -0.59581685 0.18625988 0.9814863 -0.1812671 0.1776978 -0.8084396 -0.04667417 1.0826292 0.3301273 -0.32021615 0.13909131 -0.49588877 -0.45250455 0.3840526 -0.263112 -0.57854915 -0.029809667 0.042607 -0.003816015 0.51521164 -0.208107 0.466096
59 -0.3128064 0.44230098 -0.2745142 0.034068402 0.3503471 0.1993339 0.43034792 -0.3566128 -1.3834587 0.25774965 0.019078813 -1.3570733 -0.07584735 -0.03502682 -0.45870423 1.1440525 -0.2605637 0.3652491 -0.390015 0.5639963 0.3901036 0.3836571 -0.4793698 -0.7762214 0.34067723 0.12329238 0.4238025 -0.7744507 -0.2503591 -0.30856892 1.3281326 0.21129668 -0.17512925 0.32219577 -1.505517 0.6279695 -0.22554329 0.10134196 -0.57956415 0.03334853 -0.36587283 0.63171023 0.13488814 0.47306272 0.86691576 -0.05619248 -0.3962599 -0.29397824 0.09089172 1.3781245 -0.27538246 -0.6471859 -0.16941817 -0.29851705 -0.27258345 0.45062622 -0.40734547 -1.3290678 -1.169414 0.2825709 -0.062669076 1.0345119 -0.6451239 0.9004429
60 -0.6129466 0.4908188 -1.307703 0.35104066 -0.2170106 -0.010652707 0.1864121 0.13163431 -0.847412 0.59243923 0.3449569 -0.61208767 -0.24480197 -0.60240144 0.15635413 0.5346517 -0.728809 0.9152 0.6326272 1.0796529 0.6831644 1.2208002 -0.57325023 -1.3618419 0.33919567 -0.8526908 0.04249943 -1.108437 0.62142617 0.09806444 1.2405072 0.7098516 0.008801126 -0.12642804 -0.764593 0.32185757 0.14818151 0.10993845 0.56832147 0.58548516 0.50364137 0.26611933 -0.5172342 -0.106322385 0.85341215 -0.67101294 0.498862 -1.4908364 0.27482614 1.2860031 -0.33938912 -0.43671447 0.040679254 -1.291265 -0.37085918 0.4720349 -0.47151804 -1.7092682 0.13513026 0.14491355 -0.2051989 0.35208848 -0.87794465 0.8904271
61 0.5210924 0.26406828 -0.041198313 0.5082508 -0.17886475 0.10943707 0.48264357 -0.13707866 -0.47200546 -0.13647896 0.023797074 -0.22734356 -0.3067711 -0.5001812 0.21382539 0.72052467 -0.29088393 0.10072018 -0.123322 0.82411563 0.2202153 0.5449191 0.9031388 -0.50584304 -0.7335109 0.51305073 -0.91049325 -0.17213733 -0.15060101 -0.78594387 1.0561894 0.5523921 -0.46549785 -0.76660645 -0.701091 -0.5806462 0.82527643 -0.01780132 0.5686681 -0.6332178 0.48200172 0.37995356 -0.53262883 -0.14236976 0.7515613 0.039402172 0.36504424 -0.19027686 0.08533617 0.6640968 0.5420448 -0.27075937 1.1504878 0.19600391 -0.06185374 0.5918553 0.27742448 0.17369665 -0.16546819 -0.08982869 -0.2163562 -0.66227883 -1.0849308 0.4144215
62 0.97360545 0.3119129 -0.25492287 0.3577332 -0.067833744 0.11220813 0.72326094 -0.7682516 -0.801211 0.042197682 -0.25458714 -0.72115815 -0.80333644 -0.6727049 -0.21657258 0.79832757 -0.65494823 0.29150248 -0.34359103 1.277117 0.65434325 0.84769243 0.6938881 -0.3975701 -1.1651341 0.79701924 -0.65745956 0.0589001 -0.13275932 -0.23829748 1.2719802 0.6186555 -0.42129079 -0.25461805 -0.8920608 -1.1560078 0.7591157 0.24124072 -0.14850247 -0.02376435 0.38518304 0.058219224 -0.50890553 -0.3391933 0.9214774 0.1492588 0.8195273 -0.5985381 -0.064023755 1.1456308 0.808102 -0.33247384 1.3895235 0.38715422 -0.060562976 1.0038946 0.8780292 -0.1174682 -0.3397076 -0.17716599 0.03937983 -0.81996083 -1.5209237 -0.35587838
63 0.33860216 0.03137272 -0.5357567 0.2739852 -0.02814664 0.13212013 0.35902664 0.12960902 -0.45116907 0.2890572 0.6333632 -0.059944056 -0.3349731 -0.21293291 0.19356869 0.6206078 0.07059139 0.3180247 -0.31219986 1.4490199 0.2743592 0.43713358 0.7050959 -0.7260241 -0.77588475 -0.045571286 -1.0232219 0.4223591 -0.06977229 -0.48016384 0.9855913 0.1560293 -0.02415662 -0.7252576 -0.52624595 -0.3517553 0.45323697 0.020693922 0.5402937 -0.0016974268 0.58800626 0.3874813 -0.32030618 -0.27049547 0.3392771 0.61144394 0.6632705 -0.4035889 0.18778959 0.7331765 0.42401013 0.33569315 0.87483084 -0.30467647 0.12772244 0.5818321 0.94918513 -0.23435804 0.62795395 -0.38470697 -0.24006034 -0.41818786 -1.029958 0.26541647
64 0.39802763 -0.12607606 -0.5850096 0.024906076 0.15734825 0.05104404 0.37726212 0.012902114 -0.39068186 0.44404066 0.5724091 -0.08759926 -0.41349822 0.16990283 0.17998326 0.67989427 -0.18182373 0.2890127 -0.48281464 1.4292791 0.24640477 0.37877703 0.2303859 -0.8234278 -0.8246312 -0.06507892 -0.814444 0.40169096 -0.08864238 -0.45104873 0.68663573 -0.06224068 0.10483876 -0.49888614 -0.30568376 0.1616757 0.1944008 -0.17196254 0.5501517 0.3338901 0.28639522 0.15260546 0.013132092 -0.24218005 0.19430012 0.37816182 0.43285707 -0.31971407 0.3484511 0.51414144 0.32499436 0.60651666 0.6839556 -0.4666136 0.15274471 0.6448326 0.9798689 -0.44109946 0.60864896 -0.19646712 -0.23811385 -0.24710275 -1.0389805 0.3895183
65 0.2342847 -0.18845242 -0.6366732 -0.07429277 0.27678508 -0.06687425 0.62095493 0.01718509 -0.4391085 0.6151375 0.77689284 0.09052306 -0.30793566 0.025831293 0.29636243 0.9869966 -0.030431189 0.26877326 -0.45641667 1.471786 0.26093623 0.36773732 0.19138068 -0.97188276 -0.7014971 -0.17890881 -0.8238907 0.32502672 -0.09780378 -0.39340037 0.69225824 -0.0038988788 0.24106899 -0.43562374 -0.43791655 0.081476845 0.32352182 -0.1762458 0.45996702 0.37363046 0.2818458 0.281592 0.14094104 -0.5419784 0.2560599 0.40112934 0.32619178 -0.32597345 0.3754915 0.45157537 0.29736492 0.59890646 0.63454056 -0.61601293 0.18462713 0.70173395 0.96597534 -0.51023126 0.62401354 -0.10209196 -0.22120613 -0.1932488 -1.0157279 0.5075281
66 -0.29532057 0.24508663 -1.3037031 -0.48223725 -0.051943798 -0.048119567 0.9552888 -0.47921064 -0.15035714 0.97982335 0.9672611 -0.24383372 -0.121804096 0.1337806 -0.26965523 1.5998132 -0.93907374 -0.028802559 -0.5939949 0.5089015 0.07443189 0.47270665 0.23315631 -0.80720544 -0.47059664 -0.30405083 -0.31036025 -0.41450202 0.30424607 -0.20998503 -0.069079995 -0.23685919 -0.32653403 0.15115821 0.26276466 0.815066 0.44142365 -0.09644168 0.64177656 0.007993785 -0.061777074 -0.15634912 0.1358331 -0.14313139 0.5869396 0.8436305 -0.48377568 -0.95450485 0.051692992 0.35579252 0.11246946 0.43942934 0.82086 -0.5608088 -0.11964648 0.5886947 1.0198276 -0.33143786 0.032207716 -0.14539339 -0.71064705 -0.08601809 -0.2694613 0.3020446
67 -0.1666064 0.159867 -1.1320561 -0.40965158 -0.14388505 0.04887949 0.56922716 -0.82142276 -0.017751658 0.8308989 0.76491207 -0.53727436 -0.14844461 0.012208594 -0.3792092 1.3666707 -0.8349062 0.019475775 -0.43829763 0.5432722 0.12218904 0.51851124 0.17659335 -0.5718996 -0.33925068 -0.30514005 -0.35402846 -0.52735376 0.39835554 -0.18422523 -0.0010443714 -0.0611118 -0.37643638 0.013823178 0.4646639 0.78118247 0.355495 -0.16368204 0.396078 -0.09601974 -0.18201038 -0.32996544 -0.08986591 0.051711693 0.69127506 0.68401784 -0.6194753 -0.9039835 0.16917425 0.31394115 -0.030831132 0.34741145 0.7573641 -0.30369505 -0.33654487 0.48964512 0.8950524 -0.14908142 -0.17765044 -0.1499774 -0.6704979 -0.17908326 -0.10873871 0.16591536
68 -0.19238153 0.08185995 -1.4340806 -0.5504414 -0.42248863 0.27331442 0.4795163 -1.1662883 0.017172 1.0113811 0.77244717 -0.89401776 -0.13682416 -0.23289794 -0.48725638 1.6258752 -0.84039974 0.20400244 -0.2869403 0.73115474 0.116090514 0.7640441 -0.016585393 -0.8970647 -0.29075888 -0.39051142 -0.64774585 -0.8273542 0.77147114 -0.114810996 0.06937988 0.16234043 -0.41243067 0.0037974627 0.4660098 0.83631516 0.48249674 -0.30535182 0.28888276 -0.15057276 -0.41572458 -0.5161533 -0.15526736 0.28391698 0.93356997 0.7094002 -1.0087975 -1.2074484 0.27800673 0.3222621 -0.0035195302 0.41510785 0.8046827 -0.23280007 -0.6689465 0.6000758 0.96309286 -0.2843199 -0.45037764 -0.20357478 -0.75631636 -0.27341983 -0.17334615 0.18518797
69 0.051351946 -0.103814326 -0.89896065 0.8855785 0.6785377 -0.38931832 0.31736237 0.6844722 -0.8158092 -0.7027738 0.04793359 -0.6130011 0.4897545 -0.112292565 1.0395114 1.2868358 -0.078085326 0.13458797 -0.96676046 1.1157395 0.023999212 0.2945294 -0.759922 -1.4149867 -0.5718364 0.15898888 -0.12136665 -0.10296148 -0.46876025 -0.13608894 -0.13141552 0.628399 -0.07722139 -0.291238 -0.48228806 0.5670766 -0.2524814 -0.63996845 -0.2910734 -0.8859827 -0.32621232 -0.1042928 0.35281572 0.576116 0.3438521 0.27079913 -0.3595587 -0.49377596 -0.65331155 -0.0243528 0.4967174 -1.4509573 1.3325478 -0.29647335 -0.57909536 -0.60683936 0.17196578 -0.45759848 -0.29862723 0.23491049 -0.034302328 -0.49294272 -0.30675906 -0.11440971
70 -0.1726814 -0.44368625 0.050308373 0.6066717 1.1251031 -0.4773264 0.71984106 0.5033231 -0.45494735 -0.5707725 0.23907793 -0.98321366 0.16323012 0.30818737 1.4472317 1.6664131 0.16206051 0.14595546 -0.3361512 1.6757773 0.4016565 0.15284383 -1.2980813 -1.2507274 -1.0723933 0.0017838274 0.2554834 -0.355368 -0.48400393 0.039570067 0.056710634 -0.20295009 0.088806204 0.037385404 -0.46379617 0.76088804 0.11326135 -0.21358562 0.20749338 -0.66708314 0.23917271 0.23280919 -0.629027 1.0343592 1.0394253 -0.6476067 -0.07145878 -0.73483557 -0.56323874 0.13330385 -0.2710553 -0.8260106 1.5494785 -0.11324026 0.06042927 -0.80647403 -0.07321829 -0.28956795 -0.09627402 0.11064507 -0.18659136 -0.31268468 -1.1791842 0.28407767
71 0.23624626 -0.15122855 -0.7188906 0.25710854 1.0875818 0.012974773 0.23918271 1.1656113 -0.680407 0.12306285 -0.23722944 -0.81022406 0.15277629 0.64607507 0.8729124 1.1714517 -0.26182672 0.6247965 -0.37036452 1.6947377 0.477755 -0.12046582 -0.45785284 -1.5580461 -0.39996344 0.89111465 0.74173796 -0.46974185 0.096987166 -0.35868925 0.3039553 0.62252474 -0.21505244 0.4152353 -0.46609917 0.36032733 0.7661398 -0.8293988 -0.13171771 -0.33503175 -0.27134907 0.5746921 -1.0627513 0.42613542 0.077555366 -0.3359574 -0.79500467 -0.49881732 0.45899102 -0.016302373 0.26475608 -1.2175814 0.99822146 -0.032281768 0.100675605 -0.81939137 0.45521274 -0.7204334 -0.25001022 -0.2067026 -0.24684736 -0.35945785 -0.43735507 -0.277755
72 0.017221624 -0.43858665 -0.10256578 0.2137735 1.2978756 0.3088946 0.2667495 0.6466178 -0.9312605 -0.24025694 -0.41910708 -1.2185675 0.09024374 0.74569154 0.8966707 1.186277 -0.14325027 0.15522058 0.41036913 1.2789047 0.3090543 0.5122156 -0.43077022 -1.3936273 -0.25852582 0.30000323 0.5468805 0.062217414 -0.7121122 -0.6048398 0.3166094 0.090541385 -0.09340598 0.2622511 -0.50034016 0.14335068 0.9128002 -0.9117067 -0.30072862 -0.07268758 -0.23656563 0.174894 -1.0721347 0.15998638 0.9273549 -0.4835803 -0.015937682 -0.4544718 0.6285981 0.19420154 0.2501513 -1.1865858 0.7002724 -0.32025403 -0.31997672 -0.6949132 0.6896355 -0.4978716 -1.0037752 -0.117119715 -0.35305923 -0.085609056 -0.22405209 -1.0405293
73 -0.3631268 -0.678331 -0.23454976 0.36877525 1.0025176 0.5045767 0.2728604 -0.1076821 -0.52215225 -0.4205641 -0.6521886 -0.7268675 0.1807967 0.63228965 0.9003702 0.79787284 0.20430939 0.1204525 0.8681146 1.3557802 0.4841856 0.6085524 -0.51642144 -1.4616578 0.022098308 0.09813406 0.44141933 0.31887043 0.19913363 -0.75757045 0.0009763366 0.3236954 -0.11165929 0.4834642 -0.73600817 0.5821843 0.6799599 -0.5141451 0.065505944 -0.5802492 -0.27828732 0.3721204 -1.2934726 0.38071358 1.007897 -1.0775093 -0.35016015 -0.6691224 1.2435495 -0.3894528 0.0075630024 -0.5834598 -0.27589273 -0.4931454 -0.44026488 -0.8987923 0.9062674 -0.8583248 -1.0145092 0.020178175 -0.5520264 -0.26912335 0.117919 -0.6592176
74 -0.15060526 -0.6405423 -0.006141223 -0.11267623 0.72423023 0.21399754 0.39119515 -0.35238335 -0.5457896 0.0076517193 -0.4630363 -0.9970149 -0.046857636 0.24293263 0.91036904 0.9738367 0.20873584 0.13872543 0.9559973 0.7286087 0.5425182 0.8478188 -0.7272812 -0.8395383 0.037977 0.22910108 0.2848587 0.3606903 -0.021758119 -0.50841874 0.18113375 0.51776814 0.25121403 0.5554352 -0.24746732 0.49557817 0.8086915 -0.59654325 0.074293986 -0.85340923 -0.03279037 0.0561003 -1.4049557 0.42544731 0.87005466 -0.8282009 -0.54311997 -0.63825786 1.0224533 -0.02486744 0.20145856 -0.8591044 -0.3400838 -0.70659274 -0.8946084 -0.65998137 0.7358155 -0.5647609 -1.1528196 0.20581353 -0.6375836 -0.24850725 0.27704158 -0.5640834
75 0.14458488 -0.37556246 0.23173773 0.022943918 0.88542855 -0.5156057 0.80208504 -0.4731408 -0.29757056 0.038768034 0.29256842 -0.4065411 -0.13648057 0.020558435 1.5391556 0.9456047 0.8915985 0.38471088 0.42869923 0.6417487 -0.11179714 0.17662238 -0.38582364 -0.64345247 0.29992315 1.0207886 -0.2293872 0.25733995 -0.15105122 0.09945179 0.29551157 1.4590356 0.274591 0.65380394 0.3183197 0.8933945 0.79218346 -0.33811292 0.16150942 -0.23927894 -0.3368125 1.0891342 -1.2290338 1.1215727 1.2280209 -0.06957428 -0.786954 -1.4460061 1.319532 -0.3317399 0.57178944 -0.18343635 -0.10746861 -0.23955932 -0.8535489 -0.31340924 -0.0525753 -0.5438398 -1.0950736 0.14643615 -1.5770543 -0.68665767 -0.1539733 -0.9738032
76 0.9175869 0.61996853 -0.58258533 0.84255767 0.23448366 -0.5477736 0.769849 -0.105573654 -0.022617709 -0.13531129 -0.18608756 -0.76008725 -0.27074158 -0.27317545 0.86604744 0.8396956 -0.42066738 -0.055734344 -0.5519187 0.52351713 -0.074526705 1.0749532 1.0791382 -1.2590712 -0.5425435 -0.47049102 -0.57816285 0.5015351 0.6337479 -0.08555385 0.2876649 0.9467005 0.28627062 0.13653292 -0.70550543 0.16544329 0.3705949 -0.32103425 0.78200686 0.09669343 -0.10605109 -0.49223864 0.11281491 0.44487506 0.55508435 0.39008868 -0.590774 0.1041698 -0.06734478 0.7608215 -0.047088176 0.051712263 -0.56376517 0.52523977 -1.0201523 0.2729689 -0.028173989 -0.7200718 -0.5258597 0.10806222 -0.6970138 -0.31596696 1.1225444 0.7529287
77 0.5706519 0.32552537 -0.6345122 0.38871655 -0.36601076 -0.346357 0.7582228 -0.47953385 0.3431409 0.014116987 -0.50894254 -0.5672181 -0.0530621 -0.5526568 0.6397478 1.0210052 -0.41663656 0.5000457 -0.6477851 0.9383354 -0.03949282 1.5288002 0.45684308 -1.1816826 -0.6180093 -0.87997466 -0.6326899 0.7670263 0.6552804 0.10697541 0.7423665 1.2703136 -0.310501 0.09216639 -0.43708798 -0.16414571 -0.50465107 -0.5158146 0.8314329 0.4045795 -0.5076545 -0.559065 0.09694312 0.72184 0.16137072 0.34987605 -0.28137898 0.07710371 0.2583604 0.70042753 -0.09263033 -0.32374385 -0.43474433 0.35033083 -0.91933674 0.3167004 -0.06450561 -0.9704646 -0.32348844 -0.3653168 -0.3657088 -0.8612631 0.46284252 1.2379718
78 0.46665475 0.535868 -0.089142114 0.71455336 -0.58595127 -0.28186142 0.68346894 -0.92627674 0.48255068 -0.09116081 -0.61601293 -0.3139988 0.600666 -0.1506576 0.23972535 1.3536601 -0.6562944 -0.0410155 -0.30967486 0.7828594 0.20424671 1.61101 0.57599026 -1.166927 -0.6313947 0.084626526 0.34419167 0.9846015 0.96131927 -0.33965856 0.7001403 0.4071071 0.03301673 -0.004680689 -0.93266267 0.40974912 0.8515097 -0.47858566 0.7600073 0.1901237 -0.7040481 -0.53492856 -0.0054800007 0.3751788 0.7113482 0.20595212 0.38976154 -0.5496693 0.13200255 0.782376 0.18349865 -0.14287084 -0.576445 0.40027848 -0.97044784 0.23223564 0.5436982 -1.3231463 -0.027180765 -0.42613629 -0.28925106 -0.44056928 0.9377542 1.050183
79 -0.15477775 0.32801852 -0.24882433 0.59290016 -0.5721108 -0.64934313 0.39889476 -0.21544686 -0.03965377 0.02031535 0.0090783695 0.14904568 0.061468557 -0.3805887 0.15175477 1.4299583 -0.20141044 -0.278886 -0.34101108 0.98084307 -0.46917465 0.8029834 0.309967 -1.5178465 -0.7890588 -0.71190476 -0.6448851 0.88312906 0.98560864 -0.0701522 0.41080108 1.2257384 -0.71292496 -0.22564529 -0.8207156 -0.020150004 0.36691448 0.309232 0.598842 0.2242903 -0.032272767 -0.76631933 -0.04049945 0.068286195 0.5826386 -0.35649174 0.7372822 -0.21653624 0.3655663 1.1191211 0.5397649 0.5032556 -0.4071597 1.0989902 -0.9263334 0.6074721 0.80339414 0.22987309 0.21176118 -1.0624444 -0.42810524 -1.0383554 0.453687 0.744423
80 0.18888153 0.5776681 -0.7741808 0.77973384 -0.5032375 -0.23617138 0.28019053 -0.059453197 -0.103797615 0.6365193 -0.022587324 0.055344943 0.24994384 0.04506221 0.021575518 1.0379878 0.25887877 0.3526882 -0.41219282 0.78042614 -0.37107432 0.8506755 -0.12877934 -1.3702439 -1.014963 -0.52182406 -0.60192007 1.1194524 0.75091594 -0.24528658 1.1714898 1.1887815 -0.6177862 0.17613722 -0.6011169 -0.18769151 -0.43423226 0.39128146 0.21439834 0.506962 -0.401088 -0.9334311 -0.093952484 0.2113709 0.81617403 -0.022064999 0.81735235 -0.11090574 0.030419905 1.3660145 0.29087564 -0.0489984 0.00549999 0.7542389 -0.28954116 0.062272884 0.9765299 -0.5140404 0.23174796 -1.0666023 -0.06330451 -0.17961574 0.020040065 0.42579702
81 0.41172835 0.4591429 -0.50029796 0.39746854 -0.19340625 -0.5178805 0.33210796 0.21076165 -0.31681997 0.32165265 -0.57493824 -0.24346487 0.82038456 1.0570655 -0.09721137 0.7091827 0.51579577 0.2604762 -0.5389752 1.0932345 0.123495795 1.1996208 -0.4371192 -1.8358003 -0.4570437 -0.51605004 -0.5808494 0.82302487 0.7627771 -0.123147525 1.2161171 0.9269559 -0.6521146 0.05561967 -0.40718573 -0.087128885 0.17740652 0.42380244 0.24989364 0.04398247 -0.23106153 -0.6692479 -0.010053894 0.21203648 1.1944089 -0.41818473 1.0505033 0.032384317 0.13743779 1.123023 0.26356214 -0.2973972 0.8061636 0.79492074 0.41920695 -0.28445557 1.4440315 0.17289767 -0.14045085 -0.18020485 0.08421732 -0.029556433 -0.011726846 -0.08586643
82 -0.22982493 -0.46190593 -0.21071535 0.7455156 -0.60054535 -0.73068637 0.609176 0.11473244 -1.2956698 0.14608341 0.66027683 -0.13642302 0.091360435 -0.13368385 0.5173898 1.0256509 -0.30297068 0.05327515 -0.52142084 0.08574995 -0.11490956 1.3631377 0.31416324 -0.43605062 -0.12626831 -0.49120802 0.23896302 0.93756294 -0.41442627 -0.69570684 -0.12032194 0.45063147 0.08029915 -0.727132 -0.33426762 -0.0001563698 0.5170051 -0.26000705 0.24749166 -0.45840636 -0.045077387 0.56885165 0.027814632 -0.44234127 1.2359126 0.25288776 -0.2460217 0.2051742 1.2036397 1.1588465 -0.16674684 0.5272182 0.13420969 0.5833703 0.12826797 -0.13558576 0.018425236 -0.8654194 -0.28971598 0.89069325 -0.31250915 -0.114466205 -0.20134178 -0.3805931
83 -0.31141183 -0.7191208 -0.19478016 0.28328216 -0.72326034 -0.87476355 0.6413344 0.13033077 -1.2015399 0.14955267 0.8208973 -0.27085602 0.07910534 -0.26496145 0.5705264 0.8719328 -0.15981005 0.18976639 -0.6320209 0.1708349 -0.1381117 1.1948366 0.24013975 -0.26283383 -0.1563317 -0.3769139 0.34060314 0.8608966 -0.5174395 -0.7406137 -0.13481729 0.40316874 -0.12184776 -0.786753 -0.5239735 -0.10803361 0.66010195 -0.36655277 0.27221015 -0.39432076 -0.09935306 0.46759883 -0.051461834 -0.22358677 1.3024653 0.050561644 -0.34061596 0.018886372 1.0758989 0.89891094 -0.054623164 0.4131138 0.25556594 0.36392573 0.11439551 -0.16635391 0.30331793 -0.777695 -0.22598037 1.0253384 -0.38127008 -0.37498194 -0.19725849 -0.19049086
84 -0.32235074 -0.7447213 -0.54203874 0.061683398 -0.90323067 -0.97319627 0.5555139 0.109712645 -1.5125155 0.16803513 0.5675632 -0.33324876 -0.2149585 -0.28492588 0.65815353 0.4341604 0.007344227 0.38625705 -0.22613165 0.13661544 -0.40368596 0.9451663 -0.16719331 -0.35060132 -0.11937475 -0.14623442 0.067649156 0.8974577 -0.15396003 -1.0249459 0.06033657 0.28632283 -0.4830956 -0.71141595 -0.4427575 0.17194366 0.8589214 -0.719873 0.34937456 -0.3535598 0.27423942 0.087532505 -0.21473034 -0.073127024 1.599102 -0.018001698 -0.41119626 -0.2153625 1.3723353 0.4589917 0.10517768 0.06563729 0.5081077 0.6595192 0.02819121 -0.238841 0.5727083 -0.7514468 -0.05905262 0.84894043 -0.123743154 -0.31221157 -0.3150613 0.0942386
85 -0.13506922 -1.1825421 -0.740497 -0.67769754 -0.38229352 -0.4093204 0.6787204 -0.14406149 -1.499748 0.1588735 0.07123799 0.10959892 0.08775913 -0.56744397 0.37286735 0.5495065 0.047408924 0.12849948 -0.35779175 -0.098222606 0.050740495 0.26260173 0.28510845 -0.3581667 -0.35095632 -0.32796583 0.27315876 0.6451735 -0.08327098 -0.7918062 0.4352793 0.04532182 -0.42596427 -1.0043689 -1.1251947 0.23177727 0.7584007 -0.45954654 0.3015776 -0.6653449 0.30478418 0.057195712 -0.6672849 -0.11953156 2.0532377 -0.12471344 -0.80558807 -0.54495406 0.99929917 0.12665358 -0.6933524 0.46209046 0.18150136 0.6093136 -0.7218425 0.13522564 0.44088507 -1.3143791 0.19922298 0.8524997 -0.41949973 0.27361542 -0.2762346 0.14903685
86 0.17616127 -0.6196853 -0.47558674 -0.27747515 0.2111154 -0.52767915 0.41639414 0.05614307 -1.4477975 -0.14930384 0.14291109 -0.1315158 -0.009984492 -0.6357099 0.2833653 0.37910968 0.1996936 0.5760553 -0.3545975 0.26427177 -0.13595699 0.42674816 -0.13240075 -0.29947087 -0.45090848 -0.3589266 0.05877548 0.21701986 -0.4002727 -0.24643508 0.7549121 -0.048039287 -0.6327149 -0.5308712 -0.824692 0.29780814 -0.037933104 -0.010967469 0.0353757 -0.50888574 -0.57155496 0.25185093 -0.5101591 -0.012128774 0.96609795 0.021831326 -0.86535543 -0.7791779 0.4694741 -0.1148206 0.13528661 0.10677912 -0.21542403 0.24422023 -0.10170324 0.24429628 0.63102 -0.6000001 0.44191197 0.6983177 -0.5743828 -0.21628754 -0.5684946 0.17141663
87 0.11360602 -0.6765032 -0.5064665 -0.3430934 -0.060164187 -0.51335144 1.0488267 0.22376129 -1.919991 0.27249628 0.3155883 -0.23981579 -0.47317466 -0.8535207 0.42615122 0.55226284 0.22650623 0.8123219 -0.71026784 -0.0035966814 0.104882285 0.5265971 -0.24339148 -0.61767906 -0.27605918 -0.6935412 0.39628834 0.1446448 -0.24270882 -0.3801591 1.0742043 0.00800731 -0.43832636 -0.4903069 -1.2142229 0.6110377 0.05944548 -0.057015035 -0.30721 -0.6264274 -0.25898817 -0.05812499 -0.96140367 0.04404968 1.1775407 0.14819475 -1.0169592 -0.8181724 0.38950026 -0.2321436 0.13485958 -0.0010804099 -0.2298662 0.40738177 -0.2058215 0.47451046 0.8812254 -0.6408667 0.6895341 0.5568968 -0.8721835 -0.030115388 -0.68211573 0.50280106
88 0.08532307 -0.8217937 -0.6906044 -0.95848906 0.2559007 -0.7277784 0.9606599 0.5346669 -2.151829 0.103030875 -0.11986549 -0.6877418 -0.26630935 -0.6688318 -0.30286366 1.0156921 0.560148 0.38530383 -0.25809035 0.036835626 0.8912814 0.13688612 -0.5113374 -1.5278282 -0.21208857 -0.5992844 0.109572 -0.42643088 -0.1653101 -0.8810899 0.9609847 0.11355393 -1.0612438 -0.86256236 -1.3338163 0.37009677 -0.014934522 0.050525643 0.12064018 0.24888721 -0.24031909 0.17365623 -0.8382315 0.28811875 0.87420434 -0.22217451 -1.1011363 -1.3423444 0.5283978 0.29550856 0.15626547 0.6306892 0.21197157 0.30357397 -0.10023528 0.5477105 1.0312871 -0.1244682 0.25953776 1.2264352 -0.25986344 -0.25610048 -0.29068807 -0.47709244
89 -0.1195216 -0.6704647 -0.37679523 -0.6754217 -0.28749713 -0.31807363 0.71045095 -6.991238e-05 -1.6401029 -0.12004711 0.2697134 -0.81224597 0.026024513 -0.9032014 0.38742775 0.39488515 -0.034217115 0.12507786 -0.4408727 -0.03210319 0.37128118 0.31694078 0.075864516 -0.6328596 -0.0064445096 -0.14007682 -0.05926629 -0.03683651 -0.51224506 -0.10923394 0.91517293 0.41750222 -0.5883837 -0.68656725 -0.77207756 0.64061 -0.30310005 0.32140374 0.07220437 -0.25197473 -0.08595566 -0.06933532 -0.36016086 0.33942568 0.3107241 -0.3381512 -0.8751795 -1.026378 -0.091115594 -0.21040773 1.1076148 0.02942898 0.64817774 0.55161244 -0.50475943 0.3069944 0.79469585 -0.5478623 -0.06968243 0.76754034 -0.2771703 -0.04952608 0.2897548 -0.108359225
90 0.22341676 -0.65932983 -0.80339557 -0.921128 -0.06328465 -0.43046138 0.74055296 0.052654546 -1.4469234 -0.26370898 -0.02071425 -0.8739193 -0.059232652 -0.8100744 0.7427207 0.53330535 -0.48146892 0.22035347 -0.40390635 -0.005314174 0.20577602 0.53323495 -0.21698324 -0.9293372 0.043624315 -0.16109025 -0.20098999 0.22303519 0.055072114 -0.060261115 1.0136688 0.75878376 -0.7460573 -0.8366995 -0.887752 0.6529762 -0.41422212 0.5323027 -0.07302658 -0.485571 -0.019960117 0.0006043963 -0.14356501 -0.08217957 0.36299127 0.0016722106 -0.7743859 -0.90180564 -0.31762338 -0.17412125 1.2074232 0.52367187 0.42968702 0.5841124 -0.7957313 0.6679193 0.48719156 -0.31504723 0.62578285 0.46918827 -0.50288767 0.33738858 0.14456159 0.023130687
91 0.41702554 -0.381826 -1.0821193 -0.75894195 -0.12690187 -0.5962767 0.78658074 -0.49515343 -1.2301368 -0.32389063 -0.27563924 -1.0525966 -0.08556049 -0.31343126 0.70950395 0.98782 -0.774335 0.5098491 -0.5574493 -0.011258168 0.28542185 0.7717575 -0.5010174 -1.3371613 0.46644598 -0.090455875 -0.22182421 -0.23107548 0.55109733 0.08449521 1.1444317 0.46772757 -0.63399416 -0.5102335 -1.1580524 0.54914945 -0.71566784 0.41878474 -0.38104397 -0.43082038 0.23390202 -0.51548314 0.3474634 -0.45865637 0.0020065547 0.047723707 -0.80346185 -0.6800926 -0.3982177 0.07520731 1.3572267 0.52121484 0.58846277 0.6824703 -1.1149633 0.5324726 0.29794398 0.083369404 0.42118815 0.4313896 -0.4820892 0.021712773 0.23441134 -0.041505225
92 0.11125845 -0.86590505 -0.50938493 -0.3504541 -0.51415604 -0.05141307 0.90251654 -0.27717328 -0.6105177 0.09577858 -0.4090856 -1.6513057 0.41362986 -0.20006385 0.76965004 0.7327977 -1.3901769 -0.16829194 -0.062228087 -0.15028188 0.29496536 0.3894469 -0.7062893 -1.1404892 -0.32457387 -0.37256417 -0.64726394 -0.12384035 0.049196944 -0.071939014 1.3476506 0.89615124 0.8037268 -1.1174657 -1.1068376 0.38925734 -0.5249558 0.62199545 -0.14709362 -0.6888871 0.37977427 0.31375486 0.5432425 -0.38820234 0.5788374 -0.11497183 -0.5908386 -0.22116137 -0.51244277 -0.1649104 0.69732 0.48360768 0.21301876 -0.073772356 -0.7704161 0.31867892 0.44387847 0.24500583 -0.09894844 0.5521188 -0.6392156 0.1269228 0.08777113 -0.1614705
93 -0.103704244 -0.5377916 -0.6458293 -0.2673387 0.947246 0.63655806 -0.5792633 -0.46799192 -0.59732574 0.64256847 0.54021007 -0.027034968 1.0224544 0.40883556 0.39903212 1.117618 0.113108166 -0.21678723 -0.49407184 0.5643998 0.5702786 0.07898364 -0.7006462 -1.2776117 -0.98705786 -0.14088856 -0.41151252 0.4750188 -0.42081365 0.008203001 0.92682314 0.10666503 0.32812303 0.05326361 -0.4285847 -0.2610185 -0.4665975 -0.24513139 -0.29487345 -0.29200503 -0.3301504 0.0958332 -0.68064755 0.14898781 1.1312448 0.10970407 0.46746346 -0.5155617 -0.118112855 0.43527368 0.6419577 0.13991855 -0.75877357 1.1017462 -0.46010238 -0.3473351 0.25575858 -0.9560428 -1.4149246 0.46964145 -0.37848055 -0.87815315 -0.68689 0.57823855
94 -0.26443827 -0.7177189 -0.75843704 0.16148402 0.74422556 -0.07744617 0.12899777 -0.40315616 -1.0366979 0.105378576 0.4091528 -0.4204244 0.50701797 0.8424103 0.20163618 0.9193937 -0.17276181 -0.25471097 -0.46971214 0.08055134 0.2309858 0.03911798 -0.26604247 -0.9736321 -0.82062936 -0.7746867 -0.58076704 0.595473 -0.89401084 -0.3493412 1.0235547 0.70706964 0.5230455 -0.13654143 -0.14653999 -0.74353516 -0.32489777 0.16859747 0.04201461 -0.85518485 -0.013995168 0.2957526 -0.7303466 0.036339033 0.76399964 0.23938575 0.50303966 -0.4910486 0.39799896 0.6795236 0.67398083 -0.494172 -0.87119466 1.0615392 -0.4224013 -0.18550688 0.49315566 -0.8246337 -1.7414744 0.63947546 0.09678344 -0.70000553 -0.11718079 0.71295893
95 0.31225774 -0.7684374 -0.6772881 0.18602178 0.7935774 0.18126027 0.7761139 -0.40067917 -0.86259663 0.094505094 0.92532295 -0.5408388 0.43696862 0.6852857 0.6136985 0.8427155 -0.53203744 -0.27845272 0.024759822 0.0979734 0.895762 -0.31395224 -0.02527439 -1.0851741 -0.49485222 -0.57194287 -0.86877084 0.96380836 -0.2900171 -0.49143538 1.0960338 0.38141733 0.9353955 -0.44159728 0.18617506 -0.44093966 -0.13101888 -0.050715722 0.01005877 -0.6134155 0.22593215 -0.028627502 -1.1803608 0.12246711 0.92910725 0.13985202 0.36195356 -1.0521358 0.12507449 1.3477968 0.18493539 -0.18996222 -0.5091345 0.9156549 -0.268414 -0.35670778 -0.07052307 -1.0519929 -0.9800685 0.8273228 0.097514294 -0.33009744 0.1699644 0.944041
96 -0.3507929 -0.7341439 -0.3531466 0.16157839 0.23963928 -0.49003655 0.44386607 0.12704311 -1.1389598 0.27867734 1.2248164 -0.18453261 0.050458238 0.59333336 0.753108 0.9565921 -0.380123 -0.24870282 -0.56494236 0.047228787 0.5649698 -0.2745322 -0.44140366 -0.7538836 -0.29801035 -0.26959875 -0.54798007 1.0956885 -0.19338419 -0.8700328 0.43079615 0.45318598 0.82749647 -0.73417145 -0.015537585 -0.3740699 0.29234472 0.16770862 0.20523375 -0.89180267 -0.0054446203 0.7941557 -1.2274466 -0.07986576 1.205328 0.4732781 -0.22111675 -0.7629781 0.44528857 0.99647945 -0.16009136 -0.3026544 0.0053657074 0.63548017 0.16015963 0.22924115 0.19573793 -0.60168976 -1.2564541 0.8824837 0.38232937 -0.2549728 0.11921595 0.53051645
97 -0.4213275 -0.39988473 0.02872532 0.33143 -0.33463514 -0.22903869 0.9954798 -0.20914164 -0.89154863 0.32549274 0.73333675 -0.21003859 -0.19290857 0.42365175 0.7480637 1.0407048 -0.09811074 -0.26976037 -0.37770858 -0.24323678 0.17836407 0.43620923 -0.36494035 -0.24330813 -0.19508773 -0.12346076 -0.1237753 1.139638 -0.14151832 -0.8425082 0.5636584 0.37596688 0.3705611 -0.7637638 -0.005466854 -0.39667892 0.18298477 -0.05470631 0.22746442 -0.14798793 -0.14522871 0.49274445 -0.64981204 -0.46585095 0.92710096 0.2458428 -0.54737955 -0.69057363 0.56617075 1.1163123 -0.6050692 0.0017967909 0.1421572 0.19283499 -0.32031655 -0.14275713 0.10275509 -0.8440999 -0.76577014 0.7572072 0.042147856 -0.7693524 -0.116353095 0.5950367
98 -0.6560427 -0.27246103 -0.20249921 0.301329 -0.544248 -0.21675467 0.89556843 0.03922136 -1.549412 0.4874805 0.6330252 -0.69867086 -0.5482536 0.53581905 0.98081285 1.1654558 0.011013964 -0.53796333 -0.7844389 -0.5597478 0.3668741 0.623642 -0.26292562 -0.45826036 -0.41513833 -0.22857267 -0.11661432 1.2606652 0.19178738 -0.6486584 0.7215854 0.6759324 0.27534395 -0.9528541 -0.5424746 0.04324897 0.33289436 -0.1376162 0.1308133 -0.1270415 -0.29463997 1.0496503 -0.71368164 -0.36108685 1.010265 0.5733382 -0.74207675 -0.8619202 0.88572615 1.173995 -0.33711547 -0.34452435 0.08245799 0.30796474 -0.8616783 -0.32084924 0.018672317 -1.0118561 -1.111898 1.0823094 0.20260954 -0.5868662 0.053723305 1.1621642
99 -0.93532974 -0.106606476 -0.4186695 0.17024513 -0.98380274 -1.245402 0.4708619 0.16423006 -1.7451682 0.42993435 1.0484315 -0.90590024 -0.4651839 -0.44020188 0.789558 1.0825135 0.42601773 0.3337056 -0.32083973 0.49611688 -0.7582297 0.90284425 0.22505745 -0.0812496 -0.473903 -0.3013771 0.028227607 0.8941326 -0.2853533 -1.1033765 0.3948769 0.062488504 -0.6705573 -0.38440865 -0.2190643 0.6904195 1.082069 -0.08759712 0.22152331 -0.44667292 -0.014004499 0.33649942 -0.0291877 0.32826957 1.2664535 0.20939873 -0.05791733 -0.714179 0.8892597 0.7566771 0.96572256 -0.47218576 0.50332075 0.23137927 0.41728008 -0.851304 0.7670003 -1.2362478 -0.6063889 0.7204248 0.18750739 0.08734049 -0.40187418 -0.11474307
100 -0.5474604 -0.41139674 -0.33548504 -0.26714346 -0.9890706 -0.56376386 1.207861 -0.15408249 -2.1482415 0.34190378 0.5737352 -0.583962 0.25688276 -1.0788276 0.12405113 0.1564729 0.42727372 0.2057815 -0.17812406 0.3677911 -0.41860262 0.5064273 0.16412811 -1.184726 0.24465314 0.3210523 -0.3026908 0.28214473 -0.84938467 -0.75033325 0.32673293 0.6349205 -0.77835613 -0.58325887 -0.17685394 0.42851216 0.3240158 0.50869244 -0.019722082 -0.13142158 0.0754356 0.094491 0.20917615 0.15772213 0.32492432 -0.033484973 -0.45683673 -0.95508593 0.4315925 0.36778066 1.3334213 -0.19711371 0.8720488 0.39647445 0.019637069 0.13621905 0.96064585 -0.4091193 -0.9172192 1.3173922 0.067899875 -0.34853902 0.06745638 0.18374392
101 -0.73794025 -0.55091137 -0.09304097 0.0076149157 -0.8894171 -0.7394239 0.47459197 -0.30829313 -1.1092352 -0.23179229 0.7642917 -0.9523929 0.6497927 -0.4004926 0.56069964 -0.05455843 -0.27937338 0.18871424 -0.39262357 0.6007433 0.027709028 1.011749 0.37164408 -0.7555154 -0.1549878 0.5905879 -0.8304167 0.16909361 -0.33074245 -0.09327687 0.110949926 0.16073237 -0.405278 0.048728835 0.4389709 0.38371044 0.6075498 0.06348618 -0.38831055 0.015963476 -0.29763064 0.36184967 0.24104616 1.0631655 0.003379224 0.16629323 -0.15953517 -1.1745529 0.06752284 -0.07286036 1.0833589 -0.90831035 0.92470926 0.89752495 -0.80102396 -0.24336776 1.1789261 -0.7249659 -0.5602918 0.64303076 -0.8045653 -0.4742882 -0.23348664 0.78493357
102 -0.046194453 0.045856673 -0.9303706 0.30232593 0.5429662 -0.19962019 -0.4195683 0.3738113 -1.3138448 0.10227886 -0.56811994 -1.1197655 -0.35512063 0.034297276 0.6899476 0.746543 -0.3483368 0.48924387 -0.230893 0.5713507 0.28049105 0.5469225 0.84709245 -0.65485513 -0.47821856 0.08276427 0.06796906 -0.13566948 -0.3043037 -0.747222 1.2613049 0.597792 0.17731489 0.32600534 -1.3308164 0.8483106 0.4629581 0.17285615 -0.025265744 0.093890525 -0.08540113 0.74786943 0.017065056 -0.52850544 0.86999375 0.19525458 -0.27718505 0.06411123 0.624354 1.5038834 0.026181674 -0.3858012 -0.16327584 0.20523748 -0.16860883 0.24596103 -0.10060908 -0.8268833 -1.3739809 0.51213986 -0.39735904 0.5255131 0.1072336 1.3157359
103 0.23253746 0.2624519 -0.38979766 0.43863344 0.58251417 -0.5456583 -0.13482557 0.21284434 -1.297383 0.5099408 -0.26003593 -0.9718866 -0.248015 0.18316251 0.95956016 0.85849154 -0.106313825 0.32091984 -0.4511321 0.3097983 0.4310025 0.4740495 0.58348715 -0.56491303 -0.54499954 0.11753667 -0.19152221 0.29546708 -0.2386366 -0.8728067 1.0571513 0.7817725 0.21254177 0.021719657 -1.2668413 0.39338264 0.36874044 0.236849 -0.07803795 -0.034446396 0.0077041816 0.4897369 -0.26749185 -0.4225199 0.71751016 0.19148554 -0.71921927 0.064042576 0.04018059 1.2788343 -0.056838203 -0.48222923 -0.50382346 0.040904112 -0.15701024 0.3199617 -0.24799938 -0.5960485 -1.2818446 0.7276553 -0.3096739 0.19036429 0.14871228 1.4823676
104 0.113019094 0.12404744 -0.33229336 0.33880344 0.37558356 -0.5907097 -0.40398458 0.19748662 -1.2533317 0.38725433 -0.12874842 -0.78528076 0.1187664 0.28454652 0.9212153 0.8020229 -0.17797385 0.30899465 -0.45274737 0.12991378 0.5304727 0.23838858 0.3447605 -0.47174892 -0.49075738 -0.05451869 -0.31702968 0.5319281 -0.25190008 -0.9014354 0.8620812 0.7045544 0.11144883 -0.15398121 -0.9344703 0.25975984 0.42462072 0.24605398 -0.026276473 -0.118298255 -0.1925785 0.68652207 -0.47838047 -0.39187995 0.7211138 0.12043118 -0.35788795 0.111591384 -0.00031689237 1.2503983 -0.03220132 -0.5090157 -0.3731735 0.056760862 0.067875594 0.2557368 -0.21105082 -0.40517145 -1.1425282 0.43900627 -0.15889415 0.20288362 0.2403144 1.2264848
105 0.059861876 0.17683959 -0.44300887 0.18126428 0.51680094 -0.4317261 -0.6069999 0.042285934 -1.0346931 0.32708418 -0.1346967 -0.6739802 0.34021637 0.42248824 0.8263276 0.831038 -0.25321326 0.3899801 -0.42606252 0.2762165 0.64430493 0.114157066 0.36338368 -0.6874888 -0.6964108 -0.12506019 -0.36535084 0.3468046 -0.30404094 -0.90278226 0.9609811 0.62220556 0.17663461 0.04875216 -0.86677116 0.16711232 0.4165503 0.3746655 -0.12197138 -0.19930053 -0.08596508 0.60964024 -0.6402627 -0.2718487 0.6956204 0.06773102 -0.21965879 0.10996553 -0.25277197 1.2883346 -0.04751947 -0.45235598 -0.5479676 0.15218057 0.15584517 0.38522196 -0.18378876 -0.35556352 -1.029505 0.23759805 -0.2755289 0.18239412 0.18495451 1.0154896
106 -0.042385045 0.22457309 -0.6059756 -0.07914211 0.5106579 -0.54859656 -0.6033654 -0.07542786 -1.1952255 0.4061327 -0.1137367 -0.6264398 0.47642767 0.6642559 1.0689408 1.2457888 -0.3999488 0.320827 -0.48630866 0.26424956 0.8121749 0.008901702 0.26098138 -1.055615 -0.8631544 -0.12610371 -0.42939833 0.5779021 -0.317597 -1.1164229 1.2507609 0.88065773 0.08741326 -0.053128786 -0.9647861 0.058829933 0.55326 0.50283545 -0.3475241 -0.3139993 0.044908833 0.7697978 -0.9304168 -0.12623653 0.78079003 0.097330675 -0.19355018 0.0641343 -0.44175377 1.4656992 0.05241852 -0.4894469 -0.69695413 0.11880404 0.34198967 0.3680528 0.08453821 -0.41053095 -1.1280749 0.16974927 -0.19452557 0.10564463 0.41331044 1.1982778
107 0.03456614 -0.12831041 -0.2838338 0.11928583 0.5349955 -0.92479813 -0.6185831 -0.7466734 -1.5642513 -0.35601512 0.0070706513 -0.4201901 0.7792076 0.36746484 1.3013124 1.23011 -0.76623136 0.41291308 -0.31801495 0.19957319 0.34161285 0.17441742 0.4554986 -0.92137176 -1.0840253 -0.21210918 -0.35552117 0.9752139 -0.7412411 -0.8048708 1.1482303 0.3474508 -0.4215966 -0.35916635 -0.54695696 -0.07181837 0.4738241 0.2591461 0.033590417 -0.7449507 -0.17237641 0.4270098 -0.8582364 -0.025098775 1.254533 -0.15157187 -0.08927399 0.024707511 -0.12777118 1.5798578 0.44614053 -0.20078388 -1.0536786 0.105988555 0.42292583 -0.12506232 -0.65386546 -0.4741585 -0.524546 -0.00991787 -0.760161 -0.15571362 -0.044983067 0.96323854
108 -0.28138512 0.41663775 -0.42133197 -0.11884617 0.7770279 -0.4975734 -0.15807416 -0.47471324 -0.38927266 0.3698091 0.7133782 -0.005081374 0.32913563 0.9124193 0.8732707 1.3113853 -0.5189353 0.022755055 -0.0875285 0.14821786 0.5467896 -0.13277431 -0.3568772 -0.82144874 -0.92865294 -0.33649778 -0.661116 0.48156264 -0.47805408 -1.0601898 1.0531055 0.30551964 0.29863197 0.20854002 -0.63635015 -0.48764378 -0.20275678 0.3531992 0.01421219 -0.44661266 0.34394726 0.7735607 -0.44817457 -0.27264237 1.4465392 -0.22819349 -0.053874135 -0.22864698 -0.2557668 0.8471286 -0.10270823 -0.71630734 -1.3886287 0.20684627 -0.27479887 0.43966284 -0.16116749 -0.62634695 -0.797686 -0.55688804 -0.4528882 -0.62245464 -1.0138541 0.34026408
109 -0.43047243 -0.030291477 -0.25894699 -0.6442739 0.73169917 -0.088579334 0.6509346 -0.8819552 -0.8188031 -0.05800803 0.46483612 0.3150336 0.4817911 1.0334345 0.24404252 1.2415186 -0.3428996 -0.048493274 -0.5210797 -0.010660581 0.3268389 0.0070581636 -0.36402497 -1.056525 -1.1522288 0.4313615 -0.22747195 0.6273911 -0.25967738 -1.1193852 1.681479 0.69638586 0.2967852 0.15805204 -0.6956722 -1.2058268 0.08415572 0.2087828 -0.030389512 -0.7851499 0.21185213 0.4447122 -0.40521058 -0.2699217 1.4314885 0.12268711 0.36835754 -0.10245874 -0.093123466 0.7228555 -0.025258137 -0.645792 -1.3540962 0.56344414 -0.7132522 0.3593606 0.35760626 -0.26555464 -0.30217126 -0.17084943 -0.44140798 -0.27027214 -1.0261252 0.6326248
110 -0.4168393 0.6438242 -0.48189515 -0.48719308 0.43555447 -0.10426224 0.7680939 -0.19012405 -0.373214 -0.0052253692 0.6063171 -0.24187881 0.15726142 0.430853 0.04096659 1.054992 -0.4187754 -0.51131517 -0.71288013 -0.44639316 -0.3253553 -0.23376867 0.26800153 -0.9835398 -0.73022926 0.7049261 -0.12299526 0.31876472 -0.31656095 -1.3321816 1.5770581 -0.083811514 -0.25262788 0.384474 -1.1586738 -0.47512212 0.24848942 0.6370055 0.018198067 -0.56476337 0.26520753 0.20555854 0.13029419 0.30666122 1.1948423 0.03819008 0.7210281 -0.29622015 -0.23607564 0.60399663 -0.09600331 0.032967545 -0.7251882 0.82802075 -0.28160262 0.3772929 0.9689801 -1.0221083 -0.87943983 -0.6717375 -0.29986525 -1.0520979 -1.2128572 -0.20771731
111 0.17597838 0.34585264 0.4102274 -0.42702675 0.5039221 -0.54185724 0.85001093 0.4009428 -0.51657784 0.7125013 0.23063658 0.10079207 0.2280986 0.7752738 -0.39668342 1.7963773 -0.4359437 -0.277363 -0.009184014 0.3576933 -0.46942395 -0.5890566 -0.41490537 -0.7913149 -0.022668721 1.0155338 -0.3891682 0.57824427 -0.25547552 -1.3034974 1.2519385 0.5094046 -0.23538046 -0.48686942 -0.4678923 -0.97632474 0.3940234 0.3110176 -0.47087216 -0.91050124 0.13580815 0.22893068 1.1741754 0.944851 1.2335426 0.09464573 -0.025861345 -0.692901 0.83135784 0.51584154 0.25218278 0.5017841 -0.57919014 1.0804726 -0.4710468 1.4448572 0.8371508 -0.15679151 -0.7777212 -0.7999997 0.2277989 -0.8727401 -1.3011183 -0.07767902
112 0.2208772 -0.46456337 -0.8369886 -0.2889991 0.24783611 -0.7278544 0.19415647 0.0608031 -1.556034 -0.11087827 0.27126253 -0.15385051 -0.16095887 -0.6344122 0.25654063 0.4161116 0.28691462 0.6136161 -0.39811444 0.29686227 -0.33301908 0.7010705 0.030150134 -0.07035045 -0.49208578 -0.28347906 -0.112143055 0.13719527 -0.35481018 -0.41355172 0.67724437 0.045228623 -0.7420302 -0.45783654 -1.117078 0.56470656 0.19224659 0.10516936 0.051445536 -0.6864162 -0.60467887 0.23242275 -0.51630133 -0.058110457 1.2923582 0.12359002 -0.96968925 -0.8858925 0.4702302 -0.2156318 0.12484793 0.09879579 -0.15428427 0.23316261 -0.17137484 0.30061194 0.922748 -0.8866207 0.21973862 0.69873434 -0.63605946 0.045265757 -0.6878593 0.35548043
113 -1.3516768 -0.34282935 -1.0308864 0.13557217 -0.2039598 0.46443358 0.7784975 0.4669733 -0.1222272 0.6017272 -0.32146794 -0.5472218 -0.83526313 0.18902133 0.9568435 0.9816293 0.24412438 -0.46379787 -0.36055404 1.1412605 0.2379146 0.67441803 0.2841721 -1.26936 0.5696887 -0.27877247 -0.24027397 -0.05308558 -0.15666445 -0.716694 0.32562378 0.7699166 -0.1517255 -0.33600962 -0.55950886 -0.44893864 1.0804871 0.40308687 0.119912446 0.04451278 -0.048940565 -0.25088146 0.2975599 0.2831822 0.17437445 1.1978266 0.04801119 -0.73715454 -0.12490204 -0.09250324 0.89202803 -1.1518644 0.5756497 0.57223326 -0.14179969 -0.15523127 0.5514964 -1.0327325 0.066976406 -0.2959594 -0.87405753 -0.3350447 -0.4114113 1.123815
114 -1.464928 -0.7266898 -1.0264508 0.5175207 -0.055845678 -0.2614336 1.0270991 0.06498279 -0.054753337 0.0010486314 -0.30818573 -0.7387316 -1.1334107 -0.3734809 0.3928988 0.86344755 0.09485828 -0.52325124 -0.067951865 1.0194978 0.15972626 0.5962566 0.27867112 -1.3077712 0.252607 -0.44923493 -0.5712613 0.77531755 0.06770107 -0.86466694 -0.12855622 0.6173833 0.4598462 -0.5007067 -0.25513998 -0.42426068 0.43040365 0.333491 -0.55925316 -0.2120753 -0.4830826 0.15150987 0.9023266 0.037306998 -0.08369503 0.78044283 0.006175374 -0.7510645 -0.19375944 -0.029285176 0.4511934 -1.2895969 0.6633622 0.84968054 0.19029438 0.4764588 0.3029622 -1.0170991 -0.092426345 -0.3066098 -0.67407477 -0.2919589 -0.3893581 1.1708128
115 -1.3781953 -0.9086652 -0.7607014 0.41687393 -0.3972403 0.09421225 1.1101874 0.30287686 -0.10966586 0.6509937 -0.07392789 0.22787721 -0.8674073 -0.29991403 0.44950262 0.6973718 0.1950312 -0.12926795 -0.49169877 0.8808784 0.30859202 0.7317436 0.5741374 -1.4955581 0.007762796 0.48995402 -0.17578064 0.4256109 -0.04071981 -0.12779716 0.1061444 0.88065046 -0.17496236 -0.11299728 -0.4604611 -0.8932536 0.35276595 -0.22055401 -0.17577939 -0.18054952 -0.6406252 0.62619394 0.7985817 -0.04960178 0.33560753 0.8037152 -0.6391793 -0.8661671 -0.054236524 -0.22000666 0.49120408 -0.86143905 1.012081 1.5885062 -0.1829814 0.3227382 0.47487193 -0.38416338 -0.27741432 0.46336266 -1.0661536 -0.16784579 -0.63904667 1.292588
116 -0.40289876 -0.6659513 -0.15650518 0.010093034 -0.06184729 -0.07272118 0.07174715 0.110927925 -0.85312665 -0.25473464 -0.2720152 -0.35570043 -0.12339251 -0.26561686 0.383314 0.186466 -0.37587395 0.07339547 -0.41498837 0.8399666 -0.004974337 0.32834908 0.21810557 -1.6015847 0.28811127 0.6344284 -0.81955737 0.27647087 -0.119019814 -0.106837206 -0.018445848 1.0634233 -0.6581611 -0.44789356 0.6470251 0.068109274 0.62316144 0.65825063 -0.39926314 -0.21147402 -0.23432612 0.35775998 0.51924044 0.29187623 0.11290464 0.6752894 -0.29528955 -1.0105557 -0.30035126 0.022072783 0.4684072 -0.38857317 0.59610826 0.9414611 -0.3238193 0.8192639 0.6040416 -0.4009189 -0.08009296 0.38891888 -0.6681016 -0.22503954 -0.16063681 1.0404696
117 -0.25974882 0.056187227 -0.4027012 -0.05113375 -0.51850104 -0.8955319 0.21680425 -0.33218873 -0.96045744 -0.37758288 -0.12997186 -0.09577377 0.4341173 0.17311895 0.5385564 0.08553947 -0.1985951 0.15492587 -0.110573284 1.3325993 -0.090800025 0.7555866 0.43775842 -1.1780908 -0.14337556 0.90101296 -0.28078493 0.09587229 -0.18118267 -0.19534266 0.36988863 0.46652564 -0.044954196 -0.058855865 0.5103902 0.92672 0.08536159 0.47408396 -0.82493925 -0.49660265 0.07199873 0.66492206 0.5306234 0.1559009 0.0688954 0.23325129 -0.13406146 -0.95341885 -0.05031073 -0.20430742 -0.19437544 -0.10600486 0.48251554 1.0339645 -0.44934466 -0.11243848 0.5487491 -0.0926739 -0.8162135 -0.13572791 -0.52030873 0.3201609 -0.48672172 0.5022247
118 -0.6248347 -0.2867682 -0.30610234 0.10284179 -0.05017313 -0.51193744 0.1617667 -0.5147087 -1.0363104 -0.1521853 0.4966003 -0.5687081 0.87803537 -0.16363868 0.4355809 0.26903716 -0.50974035 0.325299 -0.06309084 1.5717841 -0.16931547 0.39296448 0.37285748 -1.2858133 0.11249976 0.78062415 -0.7881229 -0.05254625 0.022572251 0.31027803 0.34228584 0.0016490483 0.16763751 0.27733037 0.9612347 0.82606655 0.38374943 0.27689436 -0.6051506 -0.18867142 -0.37385294 0.2757772 0.2613295 0.7387138 0.15389867 -0.14858061 -0.73180175 -1.0199331 0.27932906 -0.030156426 0.41064042 -0.09863262 0.46239236 1.3543894 -0.29194313 -0.36603108 0.51731104 -0.07338521 -0.31853074 0.38087723 -0.44043908 -0.1630731 -0.35206994 0.9495561
119 -0.7231378 -0.51468414 -0.30384496 0.31444073 0.060683727 -0.78783494 0.038054116 -0.7160379 -1.00904 -0.18493211 0.9396506 -0.4095656 0.8188985 0.04133393 0.4613038 0.5380417 -0.52628165 0.27598572 -0.47291932 2.162175 -0.19804956 0.43430543 0.32625538 -1.7751898 0.09086115 0.47276974 -0.6891597 -0.31566563 0.6116044 0.41688806 0.59591633 -0.2443318 0.039262913 0.39337316 0.6925602 0.6810523 0.3091687 -0.009094971 -0.6554725 -0.07663176 -0.5255706 0.044593286 0.30256668 0.32503706 0.20861208 -0.5486013 -0.7347717 -1.1094446 0.2384985 0.18624417 0.0942845 -0.38918987 0.46483383 1.8147497 -0.4050623 -0.24343124 0.8750634 0.21894835 -0.27001274 0.52700216 -0.22090197 -0.14557129 -0.42955405 1.169496
120 -0.20870173 -0.58685344 -0.4377122 0.533682 -0.47238827 -1.7170886 1.090593 -0.51363003 -0.8632611 -0.31893542 -0.27760375 -0.065754786 0.49692294 -0.3371249 1.0330623 0.3328755 -0.7598182 0.85098165 -0.15091412 2.0296574 0.35119975 0.1719255 -0.25841677 -0.80451256 -0.47369847 -0.29752567 -0.54651666 -0.5805923 0.43674597 0.20495553 1.2508942 0.4520568 0.030591764 0.25246617 -0.36136374 0.49031532 0.11915822 -0.7946786 -0.011052663 0.25648203 -0.097592264 0.7793186 0.8796629 -0.2861027 0.5118363 -0.83658797 -0.007830158 -1.0350174 0.33420873 -0.3909184 0.9351363 0.41543818 0.20258084 0.69308937 -0.5244021 0.27900764 0.68603045 -0.2704321 -0.86628103 0.08770188 0.5509412 0.07186132 -0.47459137 0.26077533
121 -0.1398746 -0.60082316 -0.18299839 -0.18630922 0.5193177 0.27280882 0.49292126 -0.14650844 0.05562887 0.7437941 -0.078670435 -0.58977735 0.024190336 -0.44807175 1.0387172 1.5801201 -0.63859195 0.33701798 -0.46628904 0.19762337 -0.91475004 1.0941619 -1.3292959 -1.0230025 0.22389314 -1.0809404 -0.3320701 0.5419458 -0.38747078 0.12275027 0.389118 0.6582182 -0.4959814 -0.2680951 0.34199744 -0.16710961 1.1635067 0.47625297 -0.28934625 0.25408363 0.18305632 -0.38254997 -1.3178769 0.25928804 0.7641738 0.021080298 0.1315915 -1.187437 0.4561728 -0.26823866 0.56300277 -0.29526561 -0.16792847 0.23606849 -0.37977558 -0.25053224 0.50517124 0.5282088 -1.783455 -0.0029533573 -0.38229057 -0.56724167 0.33279422 -0.01696125
122 -0.04110708 -0.042283446 0.33880252 0.7328503 0.84615254 0.12361477 0.8201455 0.22533749 -0.3601208 0.98199296 0.11863435 -0.34406975 0.033528846 -0.68889636 1.0129694 1.244408 -0.32230604 0.3828387 -0.9587059 0.19737165 -0.12972537 1.0594214 -1.3392702 -1.4624189 0.07526478 -0.8495498 -0.28227243 0.55760753 0.089706324 -0.6439807 0.8008029 0.61626184 -0.025040952 -0.10447781 -0.16650608 -0.6200413 1.0553943 0.53068686 -0.39422515 -0.015812865 0.9847243 0.67117095 -0.4395018 0.12814453 0.5517973 -0.0634599 -0.5243698 -0.29750606 0.18504053 -0.349817 1.1781716 -0.41374668 -0.46194655 -0.39861035 -0.48903245 0.28256047 -0.10678126 0.015925951 -1.4021097 -0.404425 -0.37905005 -0.4343035 0.5712068 0.0101794535
123 0.2806705 -0.61678106 -0.03018022 0.8963417 0.7857082 0.6315507 0.24414793 0.17969002 0.19529927 0.48844892 0.37067816 -0.5088812 -0.11157859 -0.30732188 0.57435846 1.0482298 0.08279498 0.0014762754 -0.96103257 0.39407167 0.2313948 0.54105693 -0.105154626 -0.6187268 0.45501313 0.19722891 0.5097226 -0.063184224 0.109367296 -0.39279306 1.3373852 0.82611454 -0.32501 -0.019231303 -0.033244263 -0.029012771 0.41289243 -0.16775855 -0.5415137 -0.5063566 0.38586298 0.8075087 -0.58271796 0.14960323 0.19933914 -0.75230795 -0.9490876 -0.5758223 0.21228483 -0.09315188 0.16368584 0.42785868 -0.060984887 -0.5452752 -0.40108994 0.5914296 0.3554044 0.16516384 -0.8811595 -0.05888631 -0.71606994 -0.8623766 0.112731576 -0.06536185
124 -0.04544284 -0.47584626 0.09232677 0.27428764 0.9618234 0.5869629 0.1821967 -0.0032562504 0.53752077 0.13108966 0.3088085 -1.0709392 -0.6600625 -0.2984986 0.36556137 0.9721747 0.15451404 0.21564068 -0.8001763 0.38655108 0.0011919319 0.9208248 -0.4727859 -0.21028088 -0.16170472 0.37141296 0.31744784 -0.19790696 -0.111570045 -0.25348285 1.0269572 0.70094204 -0.1991152 -0.13744086 0.28612345 0.16539021 0.7336136 -0.47908232 -0.5749156 -0.38990745 0.08286163 0.6762587 -0.58176637 0.494449 0.6847443 -0.7634652 -1.029786 -0.89324415 1.0233124 0.18384996 -0.03748003 0.008792721 -0.024303773 0.07939732 -0.5902857 -0.08505179 -0.015761018 0.03363097 -0.8247288 -0.035739735 -0.7953084 -0.65087324 -0.26687142 0.11609401
125 -0.15338288 -0.29427403 0.36109477 0.0312946 1.0606484 0.55046237 0.10794152 -0.15264039 0.16678646 0.3235801 -0.05297047 -1.0012532 -0.5217008 -0.052379064 0.3103167 1.3318347 -0.278375 0.2074083 -0.46207094 0.18776551 -0.39092794 1.0534568 -0.55485225 -0.14341474 -0.14086676 0.24753954 0.20349412 -0.2807448 -0.22409242 -0.3217909 0.7412293 0.7813428 -0.11152258 -0.582271 0.13769479 0.14858453 0.9863314 -0.24537987 -0.3549283 -0.51733017 -0.11273883 -0.26096955 -0.8522964 0.885264 0.6629913 -0.4319645 -0.79731536 -1.2068734 1.0800169 0.18549842 0.32531077 -0.44213188 -0.22979614 0.10777836 -0.33976498 -0.36539286 -0.00027961473 -0.4396727 -1.1258408 -0.04883463 -0.39801916 -0.3141609 0.12965117 -0.017749544
126 -0.12950258 -0.47693378 0.5360303 -0.031152094 1.3099862 0.35831794 0.24488796 0.15855514 -0.13535011 0.53335243 0.21894884 -1.1945004 -0.4022353 0.27831948 0.37930378 1.8883879 -0.8257312 0.33414048 -0.3849974 0.06399042 -0.4367103 1.3654621 -0.35015595 -0.32121062 0.2059435 0.4955224 0.18270402 -0.26526275 -0.24296962 -0.44723117 1.1532036 0.85504717 -0.06634138 -0.48850998 0.076996595 0.16805296 1.0099401 -0.109349586 -0.48548555 -0.7360057 0.14902261 -0.4183439 -0.6939841 1.2569547 0.7525905 -0.18066618 -0.672591 -1.1930437 0.8805928 0.70380783 0.17267296 -0.70087445 0.14944203 0.13071635 -0.3399844 -0.21090436 -0.3694138 -0.93859386 -1.0759213 -0.1164423 -0.17595738 0.010178893 0.80574524 -0.09115591
127 -0.56854296 0.08021009 0.1744924 0.63458055 1.152838 0.25632188 -0.5839187 -0.18439446 0.026911378 -0.046903193 0.117950216 -0.39323032 -0.5022553 0.054133985 0.15150732 1.6767025 -0.60703224 0.45304233 -1.0234613 0.41921055 -0.044083305 0.65792257 -0.5266117 -0.5563449 -0.58391786 0.26883864 0.6756687 -0.53576016 0.010009472 -0.5232148 1.171007 0.23914246 0.08538368 -0.33211035 -0.20226346 0.063120686 1.2341948 -0.30351597 -0.98615015 -0.6584693 -0.77657324 -0.39253515 -0.18614599 0.7582572 0.5003808 0.011061243 -0.3838781 -1.2517065 0.8378331 0.5452881 0.061614744 0.13647355 0.47346312 -0.022535423 -0.085685395 -0.25285658 0.13198838 -0.74175787 -0.99073964 0.11641296 -0.3496839 -0.20758793 0.36895895 0.5230476
128 -1.041812 -0.43003157 0.3479369 0.015476012 0.5894587 0.59519935 -0.34644085 -0.3844152 -0.3582952 0.026726939 0.29128233 -0.13945433 -0.2587233 -0.12195084 0.21757978 1.5393324 -0.18382467 0.28052995 -0.900433 0.7046342 -0.699868 0.5083705 -0.48292196 -0.8569577 -0.6572183 0.28358567 0.18077452 -0.35403016 0.22087833 -0.6518928 1.3146696 0.13004935 0.2500105 -0.4035226 -0.7046313 0.017668132 1.1656885 -0.799938 -1.454893 -0.47829166 -0.44704956 -0.873975 0.038908284 1.1249816 0.019056091 0.0532137 -0.5370459 -1.7500145 0.59591 0.59980726 -0.37719852 0.013266548 0.87022585 0.015065245 -0.38091207 -0.17308465 0.12845066 -0.90472144 -0.42470074 -0.45493013 -0.67607915 0.19702774 0.28424335 0.1946323
129 -0.7292422 -0.24333458 0.25457805 0.28207844 0.6459814 0.3275719 -0.18212917 0.55216366 -0.33990046 -0.2208785 -0.099720165 -0.10430196 -0.895327 -0.62038636 1.0288993 1.9213468 -0.6817251 0.90121824 0.085609235 0.21694928 -0.36870888 0.62175936 -0.58112085 -1.91496 -0.6983861 0.25591317 -0.17919399 0.09200459 0.5350306 -1.1879991 0.9289792 -0.17708725 -0.024470191 -0.14267395 -0.022939552 0.464964 0.6122011 -0.23509839 -0.7674213 -0.34782735 -0.9676953 -1.0208137 0.045586776 0.34061208 0.07691586 0.41632718 0.26098683 -1.0937209 0.56619185 0.5626816 -0.94861203 0.37867633 0.6364194 0.25711364 -0.50293255 -0.04905099 0.04636226 -0.53263587 -0.54731154 -0.0018148818 0.27959514 0.5035035 0.9724447 0.17386071
130 0.7966601 0.86920446 -0.13223024 0.05296593 0.24241862 -0.35580727 0.09805561 -0.24769995 -0.7032473 0.5706007 -0.5997896 -0.61850405 -0.29479754 -0.262637 0.377668 1.0228758 -0.4066964 0.6559983 -1.0305165 1.7861211 -0.6503184 -0.3071698 0.1490277 -0.9696579 -1.3061273 -0.81196386 -0.34075648 0.4753172 -0.5130851 -0.48739633 0.13166024 0.61578244 -0.32714814 -0.32050326 -0.30901486 -0.61388314 0.15575916 -0.8138706 -0.8368222 0.033050325 0.708534 0.5120318 -0.615701 -0.3508063 0.84240663 0.7090676 -0.41496935 -0.7060114 -0.09491742 0.44322887 0.09627473 0.330748 0.39620966 0.8487985 -0.49780068 0.12347904 0.43691292 -0.33590606 -0.22821088 0.9474535 -1.74364 -0.563396 0.45362768 -0.6541996
131 0.81068575 0.28099144 -0.21645568 0.09072296 0.09781679 0.08543924 -0.14202005 -0.53751266 -0.40123773 0.041654408 -0.1890015 -1.0149143 0.40543213 0.48474953 0.62708515 1.2300333 0.04826408 0.6187392 -0.72414243 1.8731462 -0.74640745 -0.32573295 -0.0555134 -1.4055297 -0.3677343 -0.54991806 -0.28961018 -0.02593049 -0.55931973 -1.0434769 0.59693843 0.34432444 -0.42766592 -0.6858587 -0.73774004 -0.8530478 0.19733076 -1.1699665 -0.6155739 -0.089067355 0.8539375 0.3256904 -0.35587606 -0.4045589 0.81421703 0.5198459 -0.24393375 -0.5396772 -0.4945689 0.2846824 -0.20999059 0.18856366 0.050785724 0.0599234 -0.45556602 0.52445376 0.19496928 -0.48483068 0.10522652 1.5770736 -1.2118769 0.07437881 0.20654455 -0.4150524
132 0.39686283 0.38138068 -0.016292922 0.42600352 0.1380508 0.3487171 0.17038509 -0.3168927 -0.0073081753 0.15368377 -0.13034335 -1.5388552 1.2932584 -0.29652515 0.11891795 1.1332144 -1.2303463 0.22007 -0.17954092 1.2368758 0.06547127 0.54724765 -0.69459814 -1.382716 -0.8429801 -0.56696075 0.0105469795 -0.23678821 -0.3802458 -1.2334579 0.9580155 0.2872641 -0.5381331 -0.85164297 -0.28679758 -1.4561582 -0.58481216 -0.4928523 -0.4735238 0.42634416 1.0461386 -0.2213238 -0.71727073 -0.7604536 1.1771754 0.34134525 -0.98707086 -0.4504789 0.1360006 0.34618378 -0.31168863 0.06297259 -0.44834927 0.27993846 -0.8628505 0.6505159 0.20510362 -0.9868075 0.15702222 0.1638251 -1.2788116 0.32867053 0.28883222 -0.57294905
133 0.5254296 -0.5498762 -1.0036734 0.14363247 -0.16477951 0.078018114 0.738507 -0.39408955 -0.22817089 0.3625166 -0.8743421 -1.4397472 0.93893176 0.26218447 0.6224914 1.2201583 -1.1824317 -0.5246514 -0.29842228 0.78654975 -0.21317194 0.027475644 -0.64138716 -1.1822894 0.4672616 -0.0017877329 0.09770014 -0.16939627 0.047446504 -0.50194544 0.8352697 -0.4002215 -0.013864083 -0.9904391 -0.34639275 -0.6261581 -0.3676226 0.7488223 -0.67647314 0.021644695 0.6247749 0.3255611 0.39368027 -0.7131812 0.8059916 0.4685403 0.068135865 -0.30279997 -0.04314571 0.52108157 0.6852512 -0.15464301 -0.15514673 -0.41737217 -0.6557386 0.2303778 0.85092366 0.23616093 0.3785482 0.6619684 -1.3910809 -0.16564561 0.24135914 -0.0098207975
134 0.18809643 -0.13398345 -0.9333421 0.46002674 -0.16305119 -0.016397804 0.66311246 -0.24859734 -0.22057064 0.5930368 -0.73019797 -1.4359814 1.2643749 0.3057167 0.9136599 0.99557596 -1.0689722 -0.52269965 0.10833048 1.008631 -0.22023684 0.34775037 -0.53785664 -1.0367355 -0.24680504 0.049339768 0.11448972 0.25714108 -0.39507484 -0.5538729 0.6163382 -0.10276229 0.24397023 -0.61725074 -0.332049 -0.27897418 -0.80039287 0.39232302 -0.5715338 0.049257867 0.16099893 0.50812864 0.13168882 -0.26051855 0.97637975 0.10662276 -0.24935332 0.0617918 -0.058830146 0.56207407 0.48442987 0.12577626 0.056400273 -0.4562575 -0.77146745 0.338019 0.4971422 0.061450675 0.014177774 0.6817292 -1.112088 -0.19629282 0.2594397 0.046070218
135 0.025090994 0.13747148 -0.91316104 0.95548517 -0.29798022 -0.04731052 0.64107627 -0.4635309 -0.5930928 0.67398936 -0.57389325 -1.33784 1.2772387 0.40200672 1.1768689 1.0123618 -0.76068234 -0.54282224 0.4576896 1.3250334 -0.3593445 -0.11776792 -0.6450559 -1.2507416 -0.36017007 0.7131608 -0.076459855 0.92083704 -0.15285562 -0.51405364 0.48107797 -0.13135846 0.030934757 -0.4186504 -0.32289198 -0.5296062 -1.0974126 0.39507928 -0.7543251 0.040787704 -0.23125383 0.66499734 -0.0012309422 0.12320491 1.3994406 0.18703423 -0.48485544 0.4787196 0.17771235 0.8733262 0.36171618 -0.09491656 0.5968274 -0.40029296 -1.4893191 0.22690086 0.43001527 0.06250489 -0.7363331 0.83198065 -1.1114537 -0.18229671 0.27639294 0.16278554
136 0.44529697 0.5733983 -0.46886125 0.64746827 -0.10556882 0.55132514 0.13360034 -0.25544024 -0.0860894 -0.21002012 0.16906908 -0.45896173 0.24540237 0.18588811 -0.22646841 0.40317628 -0.9140518 0.71271425 -0.038289573 0.36184335 0.19992666 0.74193066 0.5031782 -1.2635691 -0.6852109 0.7661344 -0.66971976 0.22562994 0.3300104 -0.59878236 0.9409442 0.1388625 -0.29572946 -0.4828873 -0.2953359 -0.50706834 -0.057909228 0.43070394 0.65102357 -0.22290926 0.35107854 -0.02831852 -0.4817627 -0.049703833 0.26632822 0.1339305 0.54317343 -0.8384962 -0.16586255 0.79041356 0.70190847 0.27093938 0.9753334 0.55952454 -0.19639406 0.63985956 0.8077897 -1.0940968 -0.07406997 -0.5240417 -0.2394823 -0.7045553 -1.1354839 -0.4036885
137 0.6810362 0.33962458 0.17934285 0.6105504 0.41176426 0.2867643 0.42345825 -0.40862128 -0.56455094 -0.24904168 -0.43464664 -0.2610929 -0.12594117 0.06548229 -0.22303197 0.70320296 -1.1992801 0.07049699 0.020272065 0.14343193 0.32708284 0.73723155 0.8537107 -1.3979663 -0.5634172 0.6521772 -0.99989575 0.14468431 0.0053391224 -0.25881967 1.1812488 0.20277831 -0.1968435 -0.22941254 -0.024931936 -0.602555 0.032625403 0.62264097 0.09775017 -0.39144284 -0.64158624 -0.26201352 -1.3492328 0.27837142 1.193342 0.06745979 0.46349317 -0.7397114 -1.0356609 0.87439597 0.14383923 0.25104085 0.90823436 0.3835802 -0.29534593 0.4547744 0.6355797 -1.102153 -0.34981114 -0.86672765 -0.62738085 -1.2541897 -0.986393 0.36184454
138 -0.071368694 0.071032375 -0.5369255 0.0880342 0.6684746 -0.031323865 0.34561107 -0.3470747 0.06562276 -0.88031614 0.16578436 -0.51736826 -0.49250695 0.28207988 -0.08611463 0.8527988 -0.6235227 -0.31230983 -0.9160279 0.09648237 0.10822731 0.37486544 1.1167241 -1.3712813 -0.68487996 0.3143466 -0.5614119 -0.004245367 0.057931274 -0.61751455 1.3645532 -0.22966713 -0.0025704622 -0.23819324 -0.57221425 -0.44731513 -0.004825806 1.1031976 0.39746734 -0.19388747 0.5907981 -0.047941644 -0.39401728 -0.24916203 1.0571272 0.52617013 0.7051513 -0.81710565 0.03679708 1.0493797 -0.4895829 0.054521807 0.42905954 0.88417554 -0.7678967 0.8589975 0.8936813 -0.6428632 -1.280911 -0.9495238 -0.3215177 -1.1864674 -0.48793256 0.11376326
139 -0.1458771 -0.1844947 -0.39411703 -0.40608305 0.6710691 0.060221024 0.5585312 -0.33540338 -0.33212325 -0.21787228 0.30099478 -0.5120171 -0.24370934 0.42789906 -0.3126755 1.0764322 -0.66956824 -0.3721588 -0.661512 -0.28431717 -0.46825162 -0.022139292 0.39393905 -1.0025259 -0.6687395 0.66166764 -0.46503717 0.4193996 -0.6087333 -0.79186445 1.1693845 -0.13260671 0.1041202 0.52163243 -0.57011586 -0.6926647 -0.23437883 0.18300305 0.09436478 -0.35829937 0.22097917 -0.11312656 -0.08947011 0.30651587 1.2025552 -0.05211118 1.0880524 -0.4879974 0.03168493 0.59171695 -0.14955512 -0.45605898 -0.1959468 1.0811929 -0.8376735 0.41014892 0.90057725 -0.87560964 -1.0095168 -0.3763246 -0.12573947 -1.4446466 -0.7568837 -0.36773372
